digraph Tree {
node [shape=box] ;
0 [label="X[1] <= 6.5\ngini = 0.999\nsamples = 14000\nvalue = [4, 1, 2 ... 1, 2, 1]"] ;
1 [label="X[1] <= 5.5\ngini = 0.999\nsamples = 9323\nvalue = [0, 0, 2 ... 1, 2, 0]"] ;
0 -> 1 [labeldistance=2.5, labelangle=45, headlabel="True"] ;
2 [label="X[1] <= 2.5\ngini = 0.999\nsamples = 8477\nvalue = [0, 0, 0 ... 1, 2, 0]"] ;
1 -> 2 ;
3 [label="X[1] <= 0.5\ngini = 0.999\nsamples = 4235\nvalue = [0, 0, 0 ... 0, 0, 0]"] ;
2 -> 3 ;
4 [label="X[5] <= 57.5\ngini = 0.997\nsamples = 1298\nvalue = [0, 0, 0 ... 0, 0, 0]"] ;
3 -> 4 ;
5 [label="X[5] <= 54.5\ngini = 0.997\nsamples = 1281\nvalue = [0, 0, 0 ... 0, 0, 0]"] ;
4 -> 5 ;
6 [label="X[5] <= 53.5\ngini = 0.997\nsamples = 1242\nvalue = [0, 0, 0 ... 0, 0, 0]"] ;
5 -> 6 ;
7 [label="X[5] <= 31.5\ngini = 0.997\nsamples = 1235\nvalue = [0, 0, 0 ... 0, 0, 0]"] ;
6 -> 7 ;
8 [label="X[0] <= 4.5\ngini = 0.997\nsamples = 931\nvalue = [0, 0, 0 ... 0, 0, 0]"] ;
7 -> 8 ;
9 [label="X[4] <= 4.5\ngini = 0.996\nsamples = 683\nvalue = [0, 0, 0 ... 0, 0, 0]"] ;
8 -> 9 ;
10 [label="X[4] <= 2.5\ngini = 0.985\nsamples = 94\nvalue = [0, 0, 0 ... 0, 0, 0]"] ;
9 -> 10 ;
11 [label="X[0] <= 3.5\ngini = 0.982\nsamples = 69\nvalue = [0, 0, 0 ... 0, 0, 0]"] ;
10 -> 11 ;
12 [label="X[4] <= 1.5\ngini = 0.978\nsamples = 52\nvalue = [0, 0, 0 ... 0, 0, 0]"] ;
11 -> 12 ;
13 [label="X[5] <= 6.0\ngini = 0.973\nsamples = 41\nvalue = [0, 0, 0 ... 0, 0, 0]"] ;
12 -> 13 ;
14 [label="X[0] <= 1.5\ngini = 0.953\nsamples = 23\nvalue = [0, 0, 0 ... 0, 0, 0]"] ;
13 -> 14 ;
15 [label="X[5] <= 0.5\ngini = 0.9\nsamples = 10\nvalue = [0, 0, 0 ... 0, 0, 0]"] ;
14 -> 15 ;
16 [label="X[0] <= 0.5\ngini = 0.667\nsamples = 3\nvalue = [0, 0, 0 ... 0, 0, 0]"] ;
15 -> 16 ;
17 [label="gini = 0.0\nsamples = 1\nvalue = [0, 0, 0 ... 0, 0, 0]"] ;
16 -> 17 ;
18 [label="X[3] <= 24.5\ngini = 0.5\nsamples = 2\nvalue = [0, 0, 0 ... 0, 0, 0]"] ;
16 -> 18 ;
19 [label="gini = 0.0\nsamples = 1\nvalue = [0, 0, 0 ... 0, 0, 0]"] ;
18 -> 19 ;
20 [label="gini = 0.0\nsamples = 1\nvalue = [0, 0, 0 ... 0, 0, 0]"] ;
18 -> 20 ;
21 [label="X[5] <= 1.5\ngini = 0.857\nsamples = 7\nvalue = [0, 0, 0 ... 0, 0, 0]"] ;
15 -> 21 ;
22 [label="X[0] <= 0.5\ngini = 0.833\nsamples = 6\nvalue = [0, 0, 0 ... 0, 0, 0]"] ;
21 -> 22 ;
23 [label="X[2] <= 2.5\ngini = 0.667\nsamples = 3\nvalue = [0, 0, 0 ... 0, 0, 0]"] ;
22 -> 23 ;
24 [label="gini = 0.0\nsamples = 1\nvalue = [0, 0, 0 ... 0, 0, 0]"] ;
23 -> 24 ;
25 [label="X[2] <= 7.5\ngini = 0.5\nsamples = 2\nvalue = [0, 0, 0 ... 0, 0, 0]"] ;
23 -> 25 ;
26 [label="gini = 0.0\nsamples = 1\nvalue = [0, 0, 0 ... 0, 0, 0]"] ;
25 -> 26 ;
27 [label="gini = 0.0\nsamples = 1\nvalue = [0, 0, 0 ... 0, 0, 0]"] ;
25 -> 27 ;
28 [label="X[3] <= 5.0\ngini = 0.667\nsamples = 3\nvalue = [0, 0, 0 ... 0, 0, 0]"] ;
22 -> 28 ;
29 [label="gini = 0.0\nsamples = 1\nvalue = [0, 0, 0 ... 0, 0, 0]"] ;
28 -> 29 ;
30 [label="X[3] <= 16.0\ngini = 0.5\nsamples = 2\nvalue = [0, 0, 0 ... 0, 0, 0]"] ;
28 -> 30 ;
31 [label="gini = 0.0\nsamples = 1\nvalue = [0, 0, 0 ... 0, 0, 0]"] ;
30 -> 31 ;
32 [label="gini = 0.0\nsamples = 1\nvalue = [0, 0, 0 ... 0, 0, 0]"] ;
30 -> 32 ;
33 [label="gini = 0.0\nsamples = 1\nvalue = [0, 0, 0 ... 0, 0, 0]"] ;
21 -> 33 ;
34 [label="X[2] <= 3.5\ngini = 0.911\nsamples = 13\nvalue = [0, 0, 0 ... 0, 0, 0]"] ;
14 -> 34 ;
35 [label="X[2] <= 1.5\ngini = 0.844\nsamples = 8\nvalue = [0, 0, 0 ... 0, 0, 0]"] ;
34 -> 35 ;
36 [label="X[3] <= 10.5\ngini = 0.5\nsamples = 2\nvalue = [0, 0, 0 ... 0, 0, 0]"] ;
35 -> 36 ;
37 [label="gini = 0.0\nsamples = 1\nvalue = [0, 0, 0 ... 0, 0, 0]"] ;
36 -> 37 ;
38 [label="gini = 0.0\nsamples = 1\nvalue = [0, 0, 0 ... 0, 0, 0]"] ;
36 -> 38 ;
39 [label="X[5] <= 0.5\ngini = 0.778\nsamples = 6\nvalue = [0, 0, 0 ... 0, 0, 0]"] ;
35 -> 39 ;
40 [label="X[0] <= 2.5\ngini = 0.667\nsamples = 3\nvalue = [0, 0, 0 ... 0, 0, 0]"] ;
39 -> 40 ;
41 [label="X[3] <= 21.0\ngini = 0.5\nsamples = 2\nvalue = [0, 0, 0 ... 0, 0, 0]"] ;
40 -> 41 ;
42 [label="gini = 0.0\nsamples = 1\nvalue = [0, 0, 0 ... 0, 0, 0]"] ;
41 -> 42 ;
43 [label="gini = 0.0\nsamples = 1\nvalue = [0, 0, 0 ... 0, 0, 0]"] ;
41 -> 43 ;
44 [label="gini = 0.0\nsamples = 1\nvalue = [0, 0, 0 ... 0, 0, 0]"] ;
40 -> 44 ;
45 [label="X[2] <= 2.5\ngini = 0.667\nsamples = 3\nvalue = [0, 0, 0 ... 0, 0, 0]"] ;
39 -> 45 ;
46 [label="gini = 0.0\nsamples = 1\nvalue = [0, 0, 0 ... 0, 0, 0]"] ;
45 -> 46 ;
47 [label="X[3] <= 8.0\ngini = 0.5\nsamples = 2\nvalue = [0, 0, 0 ... 0, 0, 0]"] ;
45 -> 47 ;
48 [label="gini = 0.0\nsamples = 1\nvalue = [0, 0, 0 ... 0, 0, 0]"] ;
47 -> 48 ;
49 [label="gini = 0.0\nsamples = 1\nvalue = [0, 0, 0 ... 0, 0, 0]"] ;
47 -> 49 ;
50 [label="X[4] <= 0.5\ngini = 0.8\nsamples = 5\nvalue = [0, 0, 0 ... 0, 0, 0]"] ;
34 -> 50 ;
51 [label="gini = 0.0\nsamples = 1\nvalue = [0, 0, 0 ... 0, 0, 0]"] ;
50 -> 51 ;
52 [label="X[5] <= 2.5\ngini = 0.75\nsamples = 4\nvalue = [0, 0, 0 ... 0, 0, 0]"] ;
50 -> 52 ;
53 [label="X[2] <= 11.0\ngini = 0.667\nsamples = 3\nvalue = [0, 0, 0 ... 0, 0, 0]"] ;
52 -> 53 ;
54 [label="gini = 0.0\nsamples = 1\nvalue = [0, 0, 0 ... 0, 0, 0]"] ;
53 -> 54 ;
55 [label="gini = 0.5\nsamples = 2\nvalue = [0, 0, 0 ... 0, 0, 0]"] ;
53 -> 55 ;
56 [label="gini = 0.0\nsamples = 1\nvalue = [0, 0, 0 ... 0, 0, 0]"] ;
52 -> 56 ;
57 [label="X[5] <= 8.0\ngini = 0.938\nsamples = 18\nvalue = [0, 0, 0 ... 0, 0, 0]"] ;
13 -> 57 ;
58 [label="gini = 0.0\nsamples = 2\nvalue = [0, 0, 0 ... 0, 0, 0]"] ;
57 -> 58 ;
59 [label="X[2] <= 1.5\ngini = 0.938\nsamples = 16\nvalue = [0, 0, 0 ... 0, 0, 0]"] ;
57 -> 59 ;
60 [label="X[5] <= 20.5\ngini = 0.5\nsamples = 2\nvalue = [0, 0, 0 ... 0, 0, 0]"] ;
59 -> 60 ;
61 [label="gini = 0.0\nsamples = 1\nvalue = [0, 0, 0 ... 0, 0, 0]"] ;
60 -> 61 ;
62 [label="gini = 0.0\nsamples = 1\nvalue = [0, 0, 0 ... 0, 0, 0]"] ;
60 -> 62 ;
63 [label="X[4] <= 0.5\ngini = 0.929\nsamples = 14\nvalue = [0, 0, 0 ... 0, 0, 0]"] ;
59 -> 63 ;
64 [label="X[5] <= 9.5\ngini = 0.857\nsamples = 7\nvalue = [0, 0, 0 ... 0, 0, 0]"] ;
63 -> 64 ;
65 [label="gini = 0.0\nsamples = 1\nvalue = [0, 0, 0 ... 0, 0, 0]"] ;
64 -> 65 ;
66 [label="X[3] <= 10.0\ngini = 0.833\nsamples = 6\nvalue = [0, 0, 0 ... 0, 0, 0]"] ;
64 -> 66 ;
67 [label="gini = 0.0\nsamples = 1\nvalue = [0, 0, 0 ... 0, 0, 0]"] ;
66 -> 67 ;
68 [label="X[5] <= 12.5\ngini = 0.8\nsamples = 5\nvalue = [0, 0, 0 ... 0, 0, 0]"] ;
66 -> 68 ;
69 [label="X[0] <= 2.0\ngini = 0.5\nsamples = 2\nvalue = [0, 0, 0 ... 0, 0, 0]"] ;
68 -> 69 ;
70 [label="gini = 0.0\nsamples = 1\nvalue = [0, 0, 0 ... 0, 0, 0]"] ;
69 -> 70 ;
71 [label="gini = 0.0\nsamples = 1\nvalue = [0, 0, 0 ... 0, 0, 0]"] ;
69 -> 71 ;
72 [label="X[5] <= 22.5\ngini = 0.667\nsamples = 3\nvalue = [0, 0, 0 ... 0, 0, 0]"] ;
68 -> 72 ;
73 [label="gini = 0.0\nsamples = 1\nvalue = [0, 0, 0 ... 0, 0, 0]"] ;
72 -> 73 ;
74 [label="X[0] <= 1.0\ngini = 0.5\nsamples = 2\nvalue = [0, 0, 0 ... 0, 0, 0]"] ;
72 -> 74 ;
75 [label="gini = 0.0\nsamples = 1\nvalue = [0, 0, 0 ... 0, 0, 0]"] ;
74 -> 75 ;
76 [label="gini = 0.0\nsamples = 1\nvalue = [0, 0, 0 ... 0, 0, 0]"] ;
74 -> 76 ;
77 [label="X[3] <= 5.0\ngini = 0.857\nsamples = 7\nvalue = [0, 0, 0 ... 0, 0, 0]"] ;
63 -> 77 ;
78 [label="gini = 0.0\nsamples = 1\nvalue = [0, 0, 0 ... 0, 0, 0]"] ;
77 -> 78 ;
79 [label="X[2] <= 2.5\ngini = 0.833\nsamples = 6\nvalue = [0, 0, 0 ... 0, 0, 0]"] ;
77 -> 79 ;
80 [label="X[5] <= 27.0\ngini = 0.5\nsamples = 2\nvalue = [0, 0, 0 ... 0, 0, 0]"] ;
79 -> 80 ;
81 [label="gini = 0.0\nsamples = 1\nvalue = [0, 0, 0 ... 0, 0, 0]"] ;
80 -> 81 ;
82 [label="gini = 0.0\nsamples = 1\nvalue = [0, 0, 0 ... 0, 0, 0]"] ;
80 -> 82 ;
83 [label="X[5] <= 22.5\ngini = 0.75\nsamples = 4\nvalue = [0, 0, 0 ... 0, 0, 0]"] ;
79 -> 83 ;
84 [label="gini = 0.0\nsamples = 1\nvalue = [0, 0, 0 ... 0, 0, 0]"] ;
83 -> 84 ;
85 [label="X[2] <= 11.5\ngini = 0.667\nsamples = 3\nvalue = [0, 0, 0 ... 0, 0, 0]"] ;
83 -> 85 ;
86 [label="X[5] <= 27.5\ngini = 0.5\nsamples = 2\nvalue = [0, 0, 0 ... 0, 0, 0]"] ;
85 -> 86 ;
87 [label="gini = 0.0\nsamples = 1\nvalue = [0, 0, 0 ... 0, 0, 0]"] ;
86 -> 87 ;
88 [label="gini = 0.0\nsamples = 1\nvalue = [0, 0, 0 ... 0, 0, 0]"] ;
86 -> 88 ;
89 [label="gini = 0.0\nsamples = 1\nvalue = [0, 0, 0 ... 0, 0, 0]"] ;
85 -> 89 ;
90 [label="X[2] <= 2.0\ngini = 0.876\nsamples = 11\nvalue = [0, 0, 0 ... 0, 0, 0]"] ;
12 -> 90 ;
91 [label="gini = 0.0\nsamples = 2\nvalue = [0, 0, 0 ... 0, 0, 0]"] ;
90 -> 91 ;
92 [label="X[5] <= 28.0\ngini = 0.864\nsamples = 9\nvalue = [0, 0, 0 ... 0, 0, 0]"] ;
90 -> 92 ;
93 [label="X[3] <= 11.0\ngini = 0.833\nsamples = 6\nvalue = [0, 0, 0 ... 0, 0, 0]"] ;
92 -> 93 ;
94 [label="gini = 0.0\nsamples = 1\nvalue = [0, 0, 0 ... 0, 0, 0]"] ;
93 -> 94 ;
95 [label="X[3] <= 17.0\ngini = 0.8\nsamples = 5\nvalue = [0, 0, 0 ... 0, 0, 0]"] ;
93 -> 95 ;
96 [label="gini = 0.0\nsamples = 1\nvalue = [0, 0, 0 ... 0, 0, 0]"] ;
95 -> 96 ;
97 [label="X[0] <= 1.5\ngini = 0.75\nsamples = 4\nvalue = [0, 0, 0 ... 0, 0, 0]"] ;
95 -> 97 ;
98 [label="X[2] <= 8.0\ngini = 0.5\nsamples = 2\nvalue = [0, 0, 0 ... 0, 0, 0]"] ;
97 -> 98 ;
99 [label="gini = 0.0\nsamples = 1\nvalue = [0, 0, 0 ... 0, 0, 0]"] ;
98 -> 99 ;
100 [label="gini = 0.0\nsamples = 1\nvalue = [0, 0, 0 ... 0, 0, 0]"] ;
98 -> 100 ;
101 [label="X[2] <= 7.0\ngini = 0.5\nsamples = 2\nvalue = [0, 0, 0 ... 0, 0, 0]"] ;
97 -> 101 ;
102 [label="gini = 0.0\nsamples = 1\nvalue = [0, 0, 0 ... 0, 0, 0]"] ;
101 -> 102 ;
103 [label="gini = 0.0\nsamples = 1\nvalue = [0, 0, 0 ... 0, 0, 0]"] ;
101 -> 103 ;
104 [label="X[0] <= 0.5\ngini = 0.444\nsamples = 3\nvalue = [0, 0, 0 ... 0, 0, 0]"] ;
92 -> 104 ;
105 [label="gini = 0.0\nsamples = 2\nvalue = [0, 0, 0 ... 0, 0, 0]"] ;
104 -> 105 ;
106 [label="gini = 0.0\nsamples = 1\nvalue = [0, 0, 0 ... 0, 0, 0]"] ;
104 -> 106 ;
107 [label="X[5] <= 15.5\ngini = 0.913\nsamples = 17\nvalue = [0, 0, 0 ... 0, 0, 0]"] ;
11 -> 107 ;
108 [label="X[3] <= 2.5\ngini = 0.898\nsamples = 14\nvalue = [0, 0, 0 ... 0, 0, 0]"] ;
107 -> 108 ;
109 [label="gini = 0.444\nsamples = 3\nvalue = [0, 0, 0 ... 0, 0, 0]"] ;
108 -> 109 ;
110 [label="X[2] <= 2.0\ngini = 0.876\nsamples = 11\nvalue = [0, 0, 0 ... 0, 0, 0]"] ;
108 -> 110 ;
111 [label="X[4] <= 1.0\ngini = 0.625\nsamples = 4\nvalue = [0, 0, 0 ... 0, 0, 0]"] ;
110 -> 111 ;
112 [label="gini = 0.444\nsamples = 3\nvalue = [0, 0, 0 ... 0, 0, 0]"] ;
111 -> 112 ;
113 [label="gini = 0.0\nsamples = 1\nvalue = [0, 0, 0 ... 0, 0, 0]"] ;
111 -> 113 ;
114 [label="X[2] <= 4.5\ngini = 0.816\nsamples = 7\nvalue = [0, 0, 0 ... 0, 0, 0]"] ;
110 -> 114 ;
115 [label="X[3] <= 10.5\ngini = 0.625\nsamples = 4\nvalue = [0, 0, 0 ... 0, 0, 0]"] ;
114 -> 115 ;
116 [label="gini = 0.0\nsamples = 2\nvalue = [0, 0, 0 ... 0, 0, 0]"] ;
115 -> 116 ;
117 [label="X[3] <= 17.5\ngini = 0.5\nsamples = 2\nvalue = [0, 0, 0 ... 0, 0, 0]"] ;
115 -> 117 ;
118 [label="gini = 0.0\nsamples = 1\nvalue = [0, 0, 0 ... 0, 0, 0]"] ;
117 -> 118 ;
119 [label="gini = 0.0\nsamples = 1\nvalue = [0, 0, 0 ... 0, 0, 0]"] ;
117 -> 119 ;
120 [label="X[3] <= 5.0\ngini = 0.667\nsamples = 3\nvalue = [0, 0, 0 ... 0, 0, 0]"] ;
114 -> 120 ;
121 [label="gini = 0.0\nsamples = 1\nvalue = [0, 0, 0 ... 0, 0, 0]"] ;
120 -> 121 ;
122 [label="X[2] <= 8.0\ngini = 0.5\nsamples = 2\nvalue = [0, 0, 0 ... 0, 0, 0]"] ;
120 -> 122 ;
123 [label="gini = 0.0\nsamples = 1\nvalue = [0, 0, 0 ... 0, 0, 0]"] ;
122 -> 123 ;
124 [label="gini = 0.0\nsamples = 1\nvalue = [0, 0, 0 ... 0, 0, 0]"] ;
122 -> 124 ;
125 [label="X[4] <= 1.5\ngini = 0.444\nsamples = 3\nvalue = [0, 0, 0 ... 0, 0, 0]"] ;
107 -> 125 ;
126 [label="gini = 0.0\nsamples = 2\nvalue = [0, 0, 0 ... 0, 0, 0]"] ;
125 -> 126 ;
127 [label="gini = 0.0\nsamples = 1\nvalue = [0, 0, 0 ... 0, 0, 0]"] ;
125 -> 127 ;
128 [label="X[3] <= 3.5\ngini = 0.931\nsamples = 25\nvalue = [0, 0, 0 ... 0, 0, 0]"] ;
10 -> 128 ;
129 [label="X[2] <= 2.0\ngini = 0.444\nsamples = 3\nvalue = [0, 0, 0 ... 0, 0, 0]"] ;
128 -> 129 ;
130 [label="gini = 0.0\nsamples = 1\nvalue = [0, 0, 0 ... 0, 0, 0]"] ;
129 -> 130 ;
131 [label="gini = 0.0\nsamples = 2\nvalue = [0, 0, 0 ... 0, 0, 0]"] ;
129 -> 131 ;
132 [label="X[2] <= 4.5\ngini = 0.921\nsamples = 22\nvalue = [0, 0, 0 ... 0, 0, 0]"] ;
128 -> 132 ;
133 [label="X[3] <= 14.5\ngini = 0.88\nsamples = 10\nvalue = [0, 0, 0 ... 0, 0, 0]"] ;
132 -> 133 ;
134 [label="X[5] <= 13.5\ngini = 0.625\nsamples = 4\nvalue = [0, 0, 0 ... 0, 0, 0]"] ;
133 -> 134 ;
135 [label="gini = 0.0\nsamples = 2\nvalue = [0, 0, 0 ... 0, 0, 0]"] ;
134 -> 135 ;
136 [label="X[4] <= 3.5\ngini = 0.5\nsamples = 2\nvalue = [0, 0, 0 ... 0, 0, 0]"] ;
134 -> 136 ;
137 [label="gini = 0.0\nsamples = 1\nvalue = [0, 0, 0 ... 0, 0, 0]"] ;
136 -> 137 ;
138 [label="gini = 0.0\nsamples = 1\nvalue = [0, 0, 0 ... 0, 0, 0]"] ;
136 -> 138 ;
139 [label="X[0] <= 1.5\ngini = 0.833\nsamples = 6\nvalue = [0, 0, 0 ... 0, 0, 0]"] ;
133 -> 139 ;
140 [label="gini = 0.0\nsamples = 1\nvalue = [0, 0, 0 ... 0, 0, 0]"] ;
139 -> 140 ;
141 [label="X[5] <= 2.5\ngini = 0.8\nsamples = 5\nvalue = [0, 0, 0 ... 0, 0, 0]"] ;
139 -> 141 ;
142 [label="gini = 0.0\nsamples = 1\nvalue = [0, 0, 0 ... 0, 0, 0]"] ;
141 -> 142 ;
143 [label="X[0] <= 3.5\ngini = 0.75\nsamples = 4\nvalue = [0, 0, 0 ... 0, 0, 0]"] ;
141 -> 143 ;
144 [label="X[2] <= 3.5\ngini = 0.667\nsamples = 3\nvalue = [0, 0, 0 ... 0, 0, 0]"] ;
143 -> 144 ;
145 [label="gini = 0.0\nsamples = 1\nvalue = [0, 0, 0 ... 0, 0, 0]"] ;
144 -> 145 ;
146 [label="X[4] <= 3.5\ngini = 0.5\nsamples = 2\nvalue = [0, 0, 0 ... 0, 0, 0]"] ;
144 -> 146 ;
147 [label="gini = 0.0\nsamples = 1\nvalue = [0, 0, 0 ... 0, 0, 0]"] ;
146 -> 147 ;
148 [label="gini = 0.0\nsamples = 1\nvalue = [0, 0, 0 ... 0, 0, 0]"] ;
146 -> 148 ;
149 [label="gini = 0.0\nsamples = 1\nvalue = [0, 0, 0 ... 0, 0, 0]"] ;
143 -> 149 ;
150 [label="X[4] <= 3.5\ngini = 0.833\nsamples = 12\nvalue = [0, 0, 0 ... 0, 0, 0]"] ;
132 -> 150 ;
151 [label="X[3] <= 19.0\ngini = 0.741\nsamples = 9\nvalue = [0, 0, 0 ... 0, 0, 0]"] ;
150 -> 151 ;
152 [label="X[3] <= 7.0\ngini = 0.612\nsamples = 7\nvalue = [0, 0, 0 ... 0, 0, 0]"] ;
151 -> 152 ;
153 [label="gini = 0.0\nsamples = 1\nvalue = [0, 0, 0 ... 0, 0, 0]"] ;
152 -> 153 ;
154 [label="X[2] <= 11.5\ngini = 0.5\nsamples = 6\nvalue = [0, 0, 0 ... 0, 0, 0]"] ;
152 -> 154 ;
155 [label="X[5] <= 15.0\ngini = 0.625\nsamples = 4\nvalue = [0, 0, 0 ... 0, 0, 0]"] ;
154 -> 155 ;
156 [label="X[3] <= 8.5\ngini = 0.5\nsamples = 2\nvalue = [0, 0, 0 ... 0, 0, 0]"] ;
155 -> 156 ;
157 [label="gini = 0.0\nsamples = 1\nvalue = [0, 0, 0 ... 0, 0, 0]"] ;
156 -> 157 ;
158 [label="gini = 0.0\nsamples = 1\nvalue = [0, 0, 0 ... 0, 0, 0]"] ;
156 -> 158 ;
159 [label="gini = 0.0\nsamples = 2\nvalue = [0, 0, 0 ... 0, 0, 0]"] ;
155 -> 159 ;
160 [label="gini = 0.0\nsamples = 2\nvalue = [0, 0, 0 ... 0, 0, 0]"] ;
154 -> 160 ;
161 [label="X[3] <= 21.5\ngini = 0.5\nsamples = 2\nvalue = [0, 0, 0 ... 0, 0, 0]"] ;
151 -> 161 ;
162 [label="gini = 0.0\nsamples = 1\nvalue = [0, 0, 0 ... 0, 0, 0]"] ;
161 -> 162 ;
163 [label="gini = 0.0\nsamples = 1\nvalue = [0, 0, 0 ... 0, 0, 0]"] ;
161 -> 163 ;
164 [label="X[5] <= 13.0\ngini = 0.667\nsamples = 3\nvalue = [0, 0, 0 ... 0, 0, 0]"] ;
150 -> 164 ;
165 [label="gini = 0.0\nsamples = 1\nvalue = [0, 0, 0 ... 0, 0, 0]"] ;
164 -> 165 ;
166 [label="X[5] <= 28.0\ngini = 0.5\nsamples = 2\nvalue = [0, 0, 0 ... 0, 0, 0]"] ;
164 -> 166 ;
167 [label="gini = 0.0\nsamples = 1\nvalue = [0, 0, 0 ... 0, 0, 0]"] ;
166 -> 167 ;
168 [label="gini = 0.0\nsamples = 1\nvalue = [0, 0, 0 ... 0, 0, 0]"] ;
166 -> 168 ;
169 [label="X[4] <= 19.5\ngini = 0.995\nsamples = 589\nvalue = [0, 0, 0 ... 0, 0, 0]"] ;
9 -> 169 ;
170 [label="X[4] <= 14.5\ngini = 0.995\nsamples = 428\nvalue = [0, 0, 0 ... 0, 0, 0]"] ;
169 -> 170 ;
171 [label="X[5] <= 9.5\ngini = 0.991\nsamples = 225\nvalue = [0, 0, 0 ... 0, 0, 0]"] ;
170 -> 171 ;
172 [label="X[3] <= 26.5\ngini = 0.989\nsamples = 124\nvalue = [0, 0, 0 ... 0, 0, 0]"] ;
171 -> 172 ;
173 [label="X[5] <= 6.5\ngini = 0.987\nsamples = 108\nvalue = [0, 0, 0 ... 0, 0, 0]"] ;
172 -> 173 ;
174 [label="X[3] <= 2.0\ngini = 0.986\nsamples = 104\nvalue = [0, 0, 0 ... 0, 0, 0]"] ;
173 -> 174 ;
175 [label="X[0] <= 2.0\ngini = 0.816\nsamples = 7\nvalue = [0, 0, 0 ... 0, 0, 0]"] ;
174 -> 175 ;
176 [label="gini = 0.0\nsamples = 2\nvalue = [0, 0, 0 ... 0, 0, 0]"] ;
175 -> 176 ;
177 [label="X[4] <= 10.0\ngini = 0.8\nsamples = 5\nvalue = [0, 0, 0 ... 0, 0, 0]"] ;
175 -> 177 ;
178 [label="gini = 0.5\nsamples = 2\nvalue = [0, 0, 0 ... 0, 0, 0]"] ;
177 -> 178 ;
179 [label="X[2] <= 2.0\ngini = 0.667\nsamples = 3\nvalue = [0, 0, 0 ... 0, 0, 0]"] ;
177 -> 179 ;
180 [label="gini = 0.0\nsamples = 1\nvalue = [0, 0, 0 ... 0, 0, 0]"] ;
179 -> 180 ;
181 [label="X[4] <= 12.5\ngini = 0.5\nsamples = 2\nvalue = [0, 0, 0 ... 0, 0, 0]"] ;
179 -> 181 ;
182 [label="gini = 0.0\nsamples = 1\nvalue = [0, 0, 0 ... 0, 0, 0]"] ;
181 -> 182 ;
183 [label="gini = 0.0\nsamples = 1\nvalue = [0, 0, 0 ... 0, 0, 0]"] ;
181 -> 183 ;
184 [label="X[3] <= 4.5\ngini = 0.985\nsamples = 97\nvalue = [0, 0, 0 ... 0, 0, 0]"] ;
174 -> 184 ;
185 [label="X[3] <= 3.5\ngini = 0.778\nsamples = 6\nvalue = [0, 0, 0 ... 0, 0, 0]"] ;
184 -> 185 ;
186 [label="X[4] <= 9.5\ngini = 0.667\nsamples = 3\nvalue = [0, 0, 0 ... 0, 0, 0]"] ;
185 -> 186 ;
187 [label="gini = 0.0\nsamples = 1\nvalue = [0, 0, 0 ... 0, 0, 0]"] ;
186 -> 187 ;
188 [label="X[4] <= 13.0\ngini = 0.5\nsamples = 2\nvalue = [0, 0, 0 ... 0, 0, 0]"] ;
186 -> 188 ;
189 [label="gini = 0.0\nsamples = 1\nvalue = [0, 0, 0 ... 0, 0, 0]"] ;
188 -> 189 ;
190 [label="gini = 0.0\nsamples = 1\nvalue = [0, 0, 0 ... 0, 0, 0]"] ;
188 -> 190 ;
191 [label="X[4] <= 10.5\ngini = 0.444\nsamples = 3\nvalue = [0, 0, 0 ... 0, 0, 0]"] ;
185 -> 191 ;
192 [label="gini = 0.0\nsamples = 1\nvalue = [0, 0, 0 ... 0, 0, 0]"] ;
191 -> 192 ;
193 [label="gini = 0.0\nsamples = 2\nvalue = [0, 0, 0 ... 0, 0, 0]"] ;
191 -> 193 ;
194 [label="X[4] <= 13.5\ngini = 0.985\nsamples = 91\nvalue = [0, 0, 0 ... 0, 0, 0]"] ;
184 -> 194 ;
195 [label="X[3] <= 6.5\ngini = 0.983\nsamples = 79\nvalue = [0, 0, 0 ... 0, 0, 0]"] ;
194 -> 195 ;
196 [label="X[0] <= 2.5\ngini = 0.816\nsamples = 7\nvalue = [0, 0, 0 ... 0, 0, 0]"] ;
195 -> 196 ;
197 [label="X[4] <= 6.5\ngini = 0.8\nsamples = 5\nvalue = [0, 0, 0 ... 0, 0, 0]"] ;
196 -> 197 ;
198 [label="gini = 0.0\nsamples = 1\nvalue = [0, 0, 0 ... 0, 0, 0]"] ;
197 -> 198 ;
199 [label="X[3] <= 5.5\ngini = 0.75\nsamples = 4\nvalue = [0, 0, 0 ... 0, 0, 0]"] ;
197 -> 199 ;
200 [label="X[4] <= 10.0\ngini = 0.5\nsamples = 2\nvalue = [0, 0, 0 ... 0, 0, 0]"] ;
199 -> 200 ;
201 [label="gini = 0.0\nsamples = 1\nvalue = [0, 0, 0 ... 0, 0, 0]"] ;
200 -> 201 ;
202 [label="gini = 0.0\nsamples = 1\nvalue = [0, 0, 0 ... 0, 0, 0]"] ;
200 -> 202 ;
203 [label="X[4] <= 9.5\ngini = 0.5\nsamples = 2\nvalue = [0, 0, 0 ... 0, 0, 0]"] ;
199 -> 203 ;
204 [label="gini = 0.0\nsamples = 1\nvalue = [0, 0, 0 ... 0, 0, 0]"] ;
203 -> 204 ;
205 [label="gini = 0.0\nsamples = 1\nvalue = [0, 0, 0 ... 0, 0, 0]"] ;
203 -> 205 ;
206 [label="gini = 0.0\nsamples = 2\nvalue = [0, 0, 0 ... 0, 0, 0]"] ;
196 -> 206 ;
207 [label="X[3] <= 22.0\ngini = 0.982\nsamples = 72\nvalue = [0, 0, 0 ... 0, 0, 0]"] ;
195 -> 207 ;
208 [label="X[2] <= 11.5\ngini = 0.975\nsamples = 53\nvalue = [0, 0, 0 ... 0, 0, 0]"] ;
207 -> 208 ;
209 [label="X[4] <= 9.5\ngini = 0.968\nsamples = 39\nvalue = [0, 0, 0 ... 0, 0, 0]"] ;
208 -> 209 ;
210 [label="X[4] <= 8.5\ngini = 0.932\nsamples = 18\nvalue = [0, 0, 0 ... 0, 0, 0]"] ;
209 -> 210 ;
211 [label="X[3] <= 15.5\ngini = 0.893\nsamples = 11\nvalue = [0, 0, 0 ... 0, 0, 0]"] ;
210 -> 211 ;
212 [label="X[0] <= 1.0\ngini = 0.844\nsamples = 8\nvalue = [0, 0, 0 ... 0, 0, 0]"] ;
211 -> 212 ;
213 [label="gini = 0.0\nsamples = 1\nvalue = [0, 0, 0 ... 0, 0, 0]"] ;
212 -> 213 ;
214 [label="X[4] <= 6.5\ngini = 0.857\nsamples = 7\nvalue = [0, 0, 0 ... 0, 0, 0]"] ;
212 -> 214 ;
215 [label="gini = 0.0\nsamples = 1\nvalue = [0, 0, 0 ... 0, 0, 0]"] ;
214 -> 215 ;
216 [label="X[0] <= 3.0\ngini = 0.833\nsamples = 6\nvalue = [0, 0, 0 ... 0, 0, 0]"] ;
214 -> 216 ;
217 [label="X[4] <= 7.5\ngini = 0.5\nsamples = 2\nvalue = [0, 0, 0 ... 0, 0, 0]"] ;
216 -> 217 ;
218 [label="gini = 0.0\nsamples = 1\nvalue = [0, 0, 0 ... 0, 0, 0]"] ;
217 -> 218 ;
219 [label="gini = 0.0\nsamples = 1\nvalue = [0, 0, 0 ... 0, 0, 0]"] ;
217 -> 219 ;
220 [label="X[2] <= 1.5\ngini = 0.75\nsamples = 4\nvalue = [0, 0, 0 ... 0, 0, 0]"] ;
216 -> 220 ;
221 [label="gini = 0.5\nsamples = 2\nvalue = [0, 0, 0 ... 0, 0, 0]"] ;
220 -> 221 ;
222 [label="X[2] <= 3.5\ngini = 0.5\nsamples = 2\nvalue = [0, 0, 0 ... 0, 0, 0]"] ;
220 -> 222 ;
223 [label="gini = 0.0\nsamples = 1\nvalue = [0, 0, 0 ... 0, 0, 0]"] ;
222 -> 223 ;
224 [label="gini = 0.0\nsamples = 1\nvalue = [0, 0, 0 ... 0, 0, 0]"] ;
222 -> 224 ;
225 [label="X[2] <= 2.5\ngini = 0.667\nsamples = 3\nvalue = [0, 0, 0 ... 0, 0, 0]"] ;
211 -> 225 ;
226 [label="gini = 0.0\nsamples = 1\nvalue = [0, 0, 0 ... 0, 0, 0]"] ;
225 -> 226 ;
227 [label="X[2] <= 7.5\ngini = 0.5\nsamples = 2\nvalue = [0, 0, 0 ... 0, 0, 0]"] ;
225 -> 227 ;
228 [label="gini = 0.0\nsamples = 1\nvalue = [0, 0, 0 ... 0, 0, 0]"] ;
227 -> 228 ;
229 [label="gini = 0.0\nsamples = 1\nvalue = [0, 0, 0 ... 0, 0, 0]"] ;
227 -> 229 ;
230 [label="X[3] <= 11.0\ngini = 0.816\nsamples = 7\nvalue = [0, 0, 0 ... 0, 0, 0]"] ;
210 -> 230 ;
231 [label="X[2] <= 8.0\ngini = 0.444\nsamples = 3\nvalue = [0, 0, 0 ... 0, 0, 0]"] ;
230 -> 231 ;
232 [label="gini = 0.0\nsamples = 1\nvalue = [0, 0, 0 ... 0, 0, 0]"] ;
231 -> 232 ;
233 [label="gini = 0.0\nsamples = 2\nvalue = [0, 0, 0 ... 0, 0, 0]"] ;
231 -> 233 ;
234 [label="X[0] <= 0.5\ngini = 0.75\nsamples = 4\nvalue = [0, 0, 0 ... 0, 0, 0]"] ;
230 -> 234 ;
235 [label="gini = 0.0\nsamples = 1\nvalue = [0, 0, 0 ... 0, 0, 0]"] ;
234 -> 235 ;
236 [label="X[3] <= 15.5\ngini = 0.667\nsamples = 3\nvalue = [0, 0, 0 ... 0, 0, 0]"] ;
234 -> 236 ;
237 [label="gini = 0.0\nsamples = 1\nvalue = [0, 0, 0 ... 0, 0, 0]"] ;
236 -> 237 ;
238 [label="X[2] <= 6.0\ngini = 0.5\nsamples = 2\nvalue = [0, 0, 0 ... 0, 0, 0]"] ;
236 -> 238 ;
239 [label="gini = 0.0\nsamples = 1\nvalue = [0, 0, 0 ... 0, 0, 0]"] ;
238 -> 239 ;
240 [label="gini = 0.0\nsamples = 1\nvalue = [0, 0, 0 ... 0, 0, 0]"] ;
238 -> 240 ;
241 [label="X[2] <= 2.5\ngini = 0.943\nsamples = 21\nvalue = [0, 0, 0 ... 0, 0, 0]"] ;
209 -> 241 ;
242 [label="X[0] <= 0.5\ngini = 0.778\nsamples = 6\nvalue = [0, 0, 0 ... 0, 0, 0]"] ;
241 -> 242 ;
243 [label="X[4] <= 11.5\ngini = 0.444\nsamples = 3\nvalue = [0, 0, 0 ... 0, 0, 0]"] ;
242 -> 243 ;
244 [label="gini = 0.0\nsamples = 1\nvalue = [0, 0, 0 ... 0, 0, 0]"] ;
243 -> 244 ;
245 [label="gini = 0.0\nsamples = 2\nvalue = [0, 0, 0 ... 0, 0, 0]"] ;
243 -> 245 ;
246 [label="X[0] <= 2.5\ngini = 0.667\nsamples = 3\nvalue = [0, 0, 0 ... 0, 0, 0]"] ;
242 -> 246 ;
247 [label="gini = 0.0\nsamples = 1\nvalue = [0, 0, 0 ... 0, 0, 0]"] ;
246 -> 247 ;
248 [label="X[5] <= 2.5\ngini = 0.5\nsamples = 2\nvalue = [0, 0, 0 ... 0, 0, 0]"] ;
246 -> 248 ;
249 [label="gini = 0.0\nsamples = 1\nvalue = [0, 0, 0 ... 0, 0, 0]"] ;
248 -> 249 ;
250 [label="gini = 0.0\nsamples = 1\nvalue = [0, 0, 0 ... 0, 0, 0]"] ;
248 -> 250 ;
251 [label="X[4] <= 11.5\ngini = 0.924\nsamples = 15\nvalue = [0, 0, 0 ... 0, 0, 0]"] ;
241 -> 251 ;
252 [label="X[4] <= 10.5\ngini = 0.625\nsamples = 4\nvalue = [0, 0, 0 ... 0, 0, 0]"] ;
251 -> 252 ;
253 [label="X[3] <= 10.0\ngini = 0.5\nsamples = 2\nvalue = [0, 0, 0 ... 0, 0, 0]"] ;
252 -> 253 ;
254 [label="gini = 0.0\nsamples = 1\nvalue = [0, 0, 0 ... 0, 0, 0]"] ;
253 -> 254 ;
255 [label="gini = 0.0\nsamples = 1\nvalue = [0, 0, 0 ... 0, 0, 0]"] ;
253 -> 255 ;
256 [label="gini = 0.0\nsamples = 2\nvalue = [0, 0, 0 ... 0, 0, 0]"] ;
252 -> 256 ;
257 [label="X[0] <= 0.5\ngini = 0.909\nsamples = 11\nvalue = [0, 0, 0 ... 0, 0, 0]"] ;
251 -> 257 ;
258 [label="X[4] <= 12.5\ngini = 0.75\nsamples = 4\nvalue = [0, 0, 0 ... 0, 0, 0]"] ;
257 -> 258 ;
259 [label="gini = 0.0\nsamples = 1\nvalue = [0, 0, 0 ... 0, 0, 0]"] ;
258 -> 259 ;
260 [label="X[3] <= 7.5\ngini = 0.667\nsamples = 3\nvalue = [0, 0, 0 ... 0, 0, 0]"] ;
258 -> 260 ;
261 [label="gini = 0.5\nsamples = 2\nvalue = [0, 0, 0 ... 0, 0, 0]"] ;
260 -> 261 ;
262 [label="gini = 0.0\nsamples = 1\nvalue = [0, 0, 0 ... 0, 0, 0]"] ;
260 -> 262 ;
263 [label="X[5] <= 2.5\ngini = 0.857\nsamples = 7\nvalue = [0, 0, 0 ... 0, 0, 0]"] ;
257 -> 263 ;
264 [label="X[4] <= 12.5\ngini = 0.833\nsamples = 6\nvalue = [0, 0, 0 ... 0, 0, 0]"] ;
263 -> 264 ;
265 [label="X[0] <= 2.0\ngini = 0.5\nsamples = 2\nvalue = [0, 0, 0 ... 0, 0, 0]"] ;
264 -> 265 ;
266 [label="gini = 0.0\nsamples = 1\nvalue = [0, 0, 0 ... 0, 0, 0]"] ;
265 -> 266 ;
267 [label="gini = 0.0\nsamples = 1\nvalue = [0, 0, 0 ... 0, 0, 0]"] ;
265 -> 267 ;
268 [label="X[0] <= 1.5\ngini = 0.75\nsamples = 4\nvalue = [0, 0, 0 ... 0, 0, 0]"] ;
264 -> 268 ;
269 [label="gini = 0.0\nsamples = 1\nvalue = [0, 0, 0 ... 0, 0, 0]"] ;
268 -> 269 ;
270 [label="X[2] <= 4.5\ngini = 0.667\nsamples = 3\nvalue = [0, 0, 0 ... 0, 0, 0]"] ;
268 -> 270 ;
271 [label="gini = 0.0\nsamples = 1\nvalue = [0, 0, 0 ... 0, 0, 0]"] ;
270 -> 271 ;
272 [label="X[3] <= 7.5\ngini = 0.5\nsamples = 2\nvalue = [0, 0, 0 ... 0, 0, 0]"] ;
270 -> 272 ;
273 [label="gini = 0.0\nsamples = 1\nvalue = [0, 0, 0 ... 0, 0, 0]"] ;
272 -> 273 ;
274 [label="gini = 0.0\nsamples = 1\nvalue = [0, 0, 0 ... 0, 0, 0]"] ;
272 -> 274 ;
275 [label="gini = 0.0\nsamples = 1\nvalue = [0, 0, 0 ... 0, 0, 0]"] ;
263 -> 275 ;
276 [label="X[4] <= 9.5\ngini = 0.908\nsamples = 14\nvalue = [0, 0, 0 ... 0, 0, 0]"] ;
208 -> 276 ;
277 [label="X[3] <= 16.5\ngini = 0.625\nsamples = 4\nvalue = [0, 0, 0 ... 0, 0, 0]"] ;
276 -> 277 ;
278 [label="gini = 0.0\nsamples = 2\nvalue = [0, 0, 0 ... 0, 0, 0]"] ;
277 -> 278 ;
279 [label="X[5] <= 0.5\ngini = 0.5\nsamples = 2\nvalue = [0, 0, 0 ... 0, 0, 0]"] ;
277 -> 279 ;
280 [label="gini = 0.0\nsamples = 1\nvalue = [0, 0, 0 ... 0, 0, 0]"] ;
279 -> 280 ;
281 [label="gini = 0.0\nsamples = 1\nvalue = [0, 0, 0 ... 0, 0, 0]"] ;
279 -> 281 ;
282 [label="X[3] <= 16.5\ngini = 0.88\nsamples = 10\nvalue = [0, 0, 0 ... 0, 0, 0]"] ;
276 -> 282 ;
283 [label="X[3] <= 11.0\ngini = 0.625\nsamples = 4\nvalue = [0, 0, 0 ... 0, 0, 0]"] ;
282 -> 283 ;
284 [label="gini = 0.0\nsamples = 1\nvalue = [0, 0, 0 ... 0, 0, 0]"] ;
283 -> 284 ;
285 [label="gini = 0.444\nsamples = 3\nvalue = [0, 0, 0 ... 0, 0, 0]"] ;
283 -> 285 ;
286 [label="X[5] <= 2.0\ngini = 0.833\nsamples = 6\nvalue = [0, 0, 0 ... 0, 0, 0]"] ;
282 -> 286 ;
287 [label="X[4] <= 11.0\ngini = 0.8\nsamples = 5\nvalue = [0, 0, 0 ... 0, 0, 0]"] ;
286 -> 287 ;
288 [label="X[3] <= 19.5\ngini = 0.5\nsamples = 2\nvalue = [0, 0, 0 ... 0, 0, 0]"] ;
287 -> 288 ;
289 [label="gini = 0.0\nsamples = 1\nvalue = [0, 0, 0 ... 0, 0, 0]"] ;
288 -> 289 ;
290 [label="gini = 0.0\nsamples = 1\nvalue = [0, 0, 0 ... 0, 0, 0]"] ;
288 -> 290 ;
291 [label="X[0] <= 3.0\ngini = 0.667\nsamples = 3\nvalue = [0, 0, 0 ... 0, 0, 0]"] ;
287 -> 291 ;
292 [label="X[4] <= 12.5\ngini = 0.5\nsamples = 2\nvalue = [0, 0, 0 ... 0, 0, 0]"] ;
291 -> 292 ;
293 [label="gini = 0.0\nsamples = 1\nvalue = [0, 0, 0 ... 0, 0, 0]"] ;
292 -> 293 ;
294 [label="gini = 0.0\nsamples = 1\nvalue = [0, 0, 0 ... 0, 0, 0]"] ;
292 -> 294 ;
295 [label="gini = 0.0\nsamples = 1\nvalue = [0, 0, 0 ... 0, 0, 0]"] ;
291 -> 295 ;
296 [label="gini = 0.0\nsamples = 1\nvalue = [0, 0, 0 ... 0, 0, 0]"] ;
286 -> 296 ;
297 [label="X[2] <= 10.5\ngini = 0.936\nsamples = 19\nvalue = [0, 0, 0 ... 0, 0, 0]"] ;
207 -> 297 ;
298 [label="X[2] <= 2.5\ngini = 0.924\nsamples = 15\nvalue = [0, 0, 0 ... 0, 0, 0]"] ;
297 -> 298 ;
299 [label="X[4] <= 9.0\ngini = 0.72\nsamples = 5\nvalue = [0, 0, 0 ... 0, 0, 0]"] ;
298 -> 299 ;
300 [label="X[3] <= 24.5\ngini = 0.667\nsamples = 3\nvalue = [0, 0, 0 ... 0, 0, 0]"] ;
299 -> 300 ;
301 [label="gini = 0.0\nsamples = 1\nvalue = [0, 0, 0 ... 0, 0, 0]"] ;
300 -> 301 ;
302 [label="X[4] <= 7.5\ngini = 0.5\nsamples = 2\nvalue = [0, 0, 0 ... 0, 0, 0]"] ;
300 -> 302 ;
303 [label="gini = 0.0\nsamples = 1\nvalue = [0, 0, 0 ... 0, 0, 0]"] ;
302 -> 303 ;
304 [label="gini = 0.0\nsamples = 1\nvalue = [0, 0, 0 ... 0, 0, 0]"] ;
302 -> 304 ;
305 [label="gini = 0.0\nsamples = 2\nvalue = [0, 0, 0 ... 0, 0, 0]"] ;
299 -> 305 ;
306 [label="X[4] <= 7.5\ngini = 0.9\nsamples = 10\nvalue = [0, 0, 0 ... 0, 0, 0]"] ;
298 -> 306 ;
307 [label="gini = 0.0\nsamples = 1\nvalue = [0, 0, 0 ... 0, 0, 0]"] ;
306 -> 307 ;
308 [label="X[0] <= 0.5\ngini = 0.889\nsamples = 9\nvalue = [0, 0, 0 ... 0, 0, 0]"] ;
306 -> 308 ;
309 [label="X[4] <= 9.5\ngini = 0.5\nsamples = 2\nvalue = [0, 0, 0 ... 0, 0, 0]"] ;
308 -> 309 ;
310 [label="gini = 0.0\nsamples = 1\nvalue = [0, 0, 0 ... 0, 0, 0]"] ;
309 -> 310 ;
311 [label="gini = 0.0\nsamples = 1\nvalue = [0, 0, 0 ... 0, 0, 0]"] ;
309 -> 311 ;
312 [label="X[3] <= 24.0\ngini = 0.857\nsamples = 7\nvalue = [0, 0, 0 ... 0, 0, 0]"] ;
308 -> 312 ;
313 [label="X[0] <= 2.5\ngini = 0.5\nsamples = 2\nvalue = [0, 0, 0 ... 0, 0, 0]"] ;
312 -> 313 ;
314 [label="gini = 0.0\nsamples = 1\nvalue = [0, 0, 0 ... 0, 0, 0]"] ;
313 -> 314 ;
315 [label="gini = 0.0\nsamples = 1\nvalue = [0, 0, 0 ... 0, 0, 0]"] ;
313 -> 315 ;
316 [label="X[0] <= 2.5\ngini = 0.8\nsamples = 5\nvalue = [0, 0, 0 ... 0, 0, 0]"] ;
312 -> 316 ;
317 [label="X[4] <= 10.0\ngini = 0.5\nsamples = 2\nvalue = [0, 0, 0 ... 0, 0, 0]"] ;
316 -> 317 ;
318 [label="gini = 0.0\nsamples = 1\nvalue = [0, 0, 0 ... 0, 0, 0]"] ;
317 -> 318 ;
319 [label="gini = 0.0\nsamples = 1\nvalue = [0, 0, 0 ... 0, 0, 0]"] ;
317 -> 319 ;
320 [label="X[5] <= 1.5\ngini = 0.667\nsamples = 3\nvalue = [0, 0, 0 ... 0, 0, 0]"] ;
316 -> 320 ;
321 [label="gini = 0.0\nsamples = 1\nvalue = [0, 0, 0 ... 0, 0, 0]"] ;
320 -> 321 ;
322 [label="X[4] <= 11.0\ngini = 0.5\nsamples = 2\nvalue = [0, 0, 0 ... 0, 0, 0]"] ;
320 -> 322 ;
323 [label="gini = 0.0\nsamples = 1\nvalue = [0, 0, 0 ... 0, 0, 0]"] ;
322 -> 323 ;
324 [label="gini = 0.0\nsamples = 1\nvalue = [0, 0, 0 ... 0, 0, 0]"] ;
322 -> 324 ;
325 [label="X[4] <= 12.5\ngini = 0.625\nsamples = 4\nvalue = [0, 0, 0 ... 0, 0, 0]"] ;
297 -> 325 ;
326 [label="X[4] <= 11.5\ngini = 0.5\nsamples = 2\nvalue = [0, 0, 0 ... 0, 0, 0]"] ;
325 -> 326 ;
327 [label="gini = 0.0\nsamples = 1\nvalue = [0, 0, 0 ... 0, 0, 0]"] ;
326 -> 327 ;
328 [label="gini = 0.0\nsamples = 1\nvalue = [0, 0, 0 ... 0, 0, 0]"] ;
326 -> 328 ;
329 [label="gini = 0.0\nsamples = 2\nvalue = [0, 0, 0 ... 0, 0, 0]"] ;
325 -> 329 ;
330 [label="X[2] <= 3.0\ngini = 0.889\nsamples = 12\nvalue = [0, 0, 0 ... 0, 0, 0]"] ;
194 -> 330 ;
331 [label="X[2] <= 1.5\ngini = 0.444\nsamples = 3\nvalue = [0, 0, 0 ... 0, 0, 0]"] ;
330 -> 331 ;
332 [label="gini = 0.0\nsamples = 1\nvalue = [0, 0, 0 ... 0, 0, 0]"] ;
331 -> 332 ;
333 [label="gini = 0.0\nsamples = 2\nvalue = [0, 0, 0 ... 0, 0, 0]"] ;
331 -> 333 ;
334 [label="X[3] <= 21.5\ngini = 0.864\nsamples = 9\nvalue = [0, 0, 0 ... 0, 0, 0]"] ;
330 -> 334 ;
335 [label="X[2] <= 4.5\ngini = 0.833\nsamples = 6\nvalue = [0, 0, 0 ... 0, 0, 0]"] ;
334 -> 335 ;
336 [label="gini = 0.0\nsamples = 1\nvalue = [0, 0, 0 ... 0, 0, 0]"] ;
335 -> 336 ;
337 [label="X[2] <= 8.0\ngini = 0.8\nsamples = 5\nvalue = [0, 0, 0 ... 0, 0, 0]"] ;
335 -> 337 ;
338 [label="gini = 0.0\nsamples = 1\nvalue = [0, 0, 0 ... 0, 0, 0]"] ;
337 -> 338 ;
339 [label="X[2] <= 11.5\ngini = 0.75\nsamples = 4\nvalue = [0, 0, 0 ... 0, 0, 0]"] ;
337 -> 339 ;
340 [label="X[3] <= 14.0\ngini = 0.5\nsamples = 2\nvalue = [0, 0, 0 ... 0, 0, 0]"] ;
339 -> 340 ;
341 [label="gini = 0.0\nsamples = 1\nvalue = [0, 0, 0 ... 0, 0, 0]"] ;
340 -> 341 ;
342 [label="gini = 0.0\nsamples = 1\nvalue = [0, 0, 0 ... 0, 0, 0]"] ;
340 -> 342 ;
343 [label="X[5] <= 2.0\ngini = 0.5\nsamples = 2\nvalue = [0, 0, 0 ... 0, 0, 0]"] ;
339 -> 343 ;
344 [label="gini = 0.0\nsamples = 1\nvalue = [0, 0, 0 ... 0, 0, 0]"] ;
343 -> 344 ;
345 [label="gini = 0.0\nsamples = 1\nvalue = [0, 0, 0 ... 0, 0, 0]"] ;
343 -> 345 ;
346 [label="X[2] <= 7.5\ngini = 0.444\nsamples = 3\nvalue = [0, 0, 0 ... 0, 0, 0]"] ;
334 -> 346 ;
347 [label="gini = 0.0\nsamples = 1\nvalue = [0, 0, 0 ... 0, 0, 0]"] ;
346 -> 347 ;
348 [label="gini = 0.0\nsamples = 2\nvalue = [0, 0, 0 ... 0, 0, 0]"] ;
346 -> 348 ;
349 [label="X[3] <= 12.0\ngini = 0.625\nsamples = 4\nvalue = [0, 0, 0 ... 0, 0, 0]"] ;
173 -> 349 ;
350 [label="gini = 0.0\nsamples = 2\nvalue = [0, 0, 0 ... 0, 0, 0]"] ;
349 -> 350 ;
351 [label="X[2] <= 6.5\ngini = 0.5\nsamples = 2\nvalue = [0, 0, 0 ... 0, 0, 0]"] ;
349 -> 351 ;
352 [label="gini = 0.0\nsamples = 1\nvalue = [0, 0, 0 ... 0, 0, 0]"] ;
351 -> 352 ;
353 [label="gini = 0.0\nsamples = 1\nvalue = [0, 0, 0 ... 0, 0, 0]"] ;
351 -> 353 ;
354 [label="X[5] <= 2.0\ngini = 0.914\nsamples = 16\nvalue = [0, 0, 0 ... 0, 0, 0]"] ;
172 -> 354 ;
355 [label="X[4] <= 12.5\ngini = 0.86\nsamples = 11\nvalue = [0, 0, 0 ... 0, 0, 0]"] ;
354 -> 355 ;
356 [label="X[4] <= 7.5\ngini = 0.781\nsamples = 8\nvalue = [0, 0, 0 ... 0, 0, 0]"] ;
355 -> 356 ;
357 [label="X[2] <= 2.5\ngini = 0.5\nsamples = 2\nvalue = [0, 0, 0 ... 0, 0, 0]"] ;
356 -> 357 ;
358 [label="gini = 0.0\nsamples = 1\nvalue = [0, 0, 0 ... 0, 0, 0]"] ;
357 -> 358 ;
359 [label="gini = 0.0\nsamples = 1\nvalue = [0, 0, 0 ... 0, 0, 0]"] ;
357 -> 359 ;
360 [label="X[2] <= 7.5\ngini = 0.667\nsamples = 6\nvalue = [0, 0, 0 ... 0, 0, 0]"] ;
356 -> 360 ;
361 [label="X[4] <= 9.5\ngini = 0.56\nsamples = 5\nvalue = [0, 0, 0 ... 0, 0, 0]"] ;
360 -> 361 ;
362 [label="X[3] <= 27.5\ngini = 0.667\nsamples = 3\nvalue = [0, 0, 0 ... 0, 0, 0]"] ;
361 -> 362 ;
363 [label="X[2] <= 2.5\ngini = 0.5\nsamples = 2\nvalue = [0, 0, 0 ... 0, 0, 0]"] ;
362 -> 363 ;
364 [label="gini = 0.0\nsamples = 1\nvalue = [0, 0, 0 ... 0, 0, 0]"] ;
363 -> 364 ;
365 [label="gini = 0.0\nsamples = 1\nvalue = [0, 0, 0 ... 0, 0, 0]"] ;
363 -> 365 ;
366 [label="gini = 0.0\nsamples = 1\nvalue = [0, 0, 0 ... 0, 0, 0]"] ;
362 -> 366 ;
367 [label="gini = 0.0\nsamples = 2\nvalue = [0, 0, 0 ... 0, 0, 0]"] ;
361 -> 367 ;
368 [label="gini = 0.0\nsamples = 1\nvalue = [0, 0, 0 ... 0, 0, 0]"] ;
360 -> 368 ;
369 [label="X[2] <= 2.5\ngini = 0.667\nsamples = 3\nvalue = [0, 0, 0 ... 0, 0, 0]"] ;
355 -> 369 ;
370 [label="gini = 0.0\nsamples = 1\nvalue = [0, 0, 0 ... 0, 0, 0]"] ;
369 -> 370 ;
371 [label="X[4] <= 13.5\ngini = 0.5\nsamples = 2\nvalue = [0, 0, 0 ... 0, 0, 0]"] ;
369 -> 371 ;
372 [label="gini = 0.0\nsamples = 1\nvalue = [0, 0, 0 ... 0, 0, 0]"] ;
371 -> 372 ;
373 [label="gini = 0.0\nsamples = 1\nvalue = [0, 0, 0 ... 0, 0, 0]"] ;
371 -> 373 ;
374 [label="X[0] <= 0.5\ngini = 0.8\nsamples = 5\nvalue = [0, 0, 0 ... 0, 0, 0]"] ;
354 -> 374 ;
375 [label="gini = 0.0\nsamples = 1\nvalue = [0, 0, 0 ... 0, 0, 0]"] ;
374 -> 375 ;
376 [label="X[2] <= 1.5\ngini = 0.75\nsamples = 4\nvalue = [0, 0, 0 ... 0, 0, 0]"] ;
374 -> 376 ;
377 [label="gini = 0.0\nsamples = 1\nvalue = [0, 0, 0 ... 0, 0, 0]"] ;
376 -> 377 ;
378 [label="X[4] <= 6.5\ngini = 0.667\nsamples = 3\nvalue = [0, 0, 0 ... 0, 0, 0]"] ;
376 -> 378 ;
379 [label="gini = 0.0\nsamples = 1\nvalue = [0, 0, 0 ... 0, 0, 0]"] ;
378 -> 379 ;
380 [label="X[0] <= 2.0\ngini = 0.5\nsamples = 2\nvalue = [0, 0, 0 ... 0, 0, 0]"] ;
378 -> 380 ;
381 [label="gini = 0.0\nsamples = 1\nvalue = [0, 0, 0 ... 0, 0, 0]"] ;
380 -> 381 ;
382 [label="gini = 0.0\nsamples = 1\nvalue = [0, 0, 0 ... 0, 0, 0]"] ;
380 -> 382 ;
383 [label="X[0] <= 2.5\ngini = 0.98\nsamples = 101\nvalue = [0, 0, 0 ... 0, 0, 0]"] ;
171 -> 383 ;
384 [label="X[0] <= 1.5\ngini = 0.976\nsamples = 60\nvalue = [0, 0, 0 ... 0, 0, 0]"] ;
383 -> 384 ;
385 [label="X[3] <= 25.0\ngini = 0.974\nsamples = 42\nvalue = [0, 0, 0 ... 0, 0, 0]"] ;
384 -> 385 ;
386 [label="X[2] <= 11.5\ngini = 0.972\nsamples = 37\nvalue = [0, 0, 0 ... 0, 0, 0]"] ;
385 -> 386 ;
387 [label="X[0] <= 0.5\ngini = 0.967\nsamples = 30\nvalue = [0, 0, 0 ... 0, 0, 0]"] ;
386 -> 387 ;
388 [label="X[5] <= 12.5\ngini = 0.938\nsamples = 16\nvalue = [0, 0, 0 ... 0, 0, 0]"] ;
387 -> 388 ;
389 [label="gini = 0.0\nsamples = 1\nvalue = [0, 0, 0 ... 0, 0, 0]"] ;
388 -> 389 ;
390 [label="X[3] <= 4.5\ngini = 0.933\nsamples = 15\nvalue = [0, 0, 0 ... 0, 0, 0]"] ;
388 -> 390 ;
391 [label="gini = 0.0\nsamples = 1\nvalue = [0, 0, 0 ... 0, 0, 0]"] ;
390 -> 391 ;
392 [label="X[4] <= 7.5\ngini = 0.929\nsamples = 14\nvalue = [0, 0, 0 ... 0, 0, 0]"] ;
390 -> 392 ;
393 [label="gini = 0.0\nsamples = 1\nvalue = [0, 0, 0 ... 0, 0, 0]"] ;
392 -> 393 ;
394 [label="X[5] <= 14.0\ngini = 0.923\nsamples = 13\nvalue = [0, 0, 0 ... 0, 0, 0]"] ;
392 -> 394 ;
395 [label="gini = 0.0\nsamples = 1\nvalue = [0, 0, 0 ... 0, 0, 0]"] ;
394 -> 395 ;
396 [label="X[5] <= 17.5\ngini = 0.917\nsamples = 12\nvalue = [0, 0, 0 ... 0, 0, 0]"] ;
394 -> 396 ;
397 [label="gini = 0.0\nsamples = 1\nvalue = [0, 0, 0 ... 0, 0, 0]"] ;
396 -> 397 ;
398 [label="X[3] <= 7.5\ngini = 0.909\nsamples = 11\nvalue = [0, 0, 0 ... 0, 0, 0]"] ;
396 -> 398 ;
399 [label="X[4] <= 12.5\ngini = 0.5\nsamples = 2\nvalue = [0, 0, 0 ... 0, 0, 0]"] ;
398 -> 399 ;
400 [label="gini = 0.0\nsamples = 1\nvalue = [0, 0, 0 ... 0, 0, 0]"] ;
399 -> 400 ;
401 [label="gini = 0.0\nsamples = 1\nvalue = [0, 0, 0 ... 0, 0, 0]"] ;
399 -> 401 ;
402 [label="X[3] <= 10.5\ngini = 0.889\nsamples = 9\nvalue = [0, 0, 0 ... 0, 0, 0]"] ;
398 -> 402 ;
403 [label="gini = 0.0\nsamples = 1\nvalue = [0, 0, 0 ... 0, 0, 0]"] ;
402 -> 403 ;
404 [label="X[5] <= 20.5\ngini = 0.875\nsamples = 8\nvalue = [0, 0, 0 ... 0, 0, 0]"] ;
402 -> 404 ;
405 [label="X[4] <= 10.5\ngini = 0.5\nsamples = 2\nvalue = [0, 0, 0 ... 0, 0, 0]"] ;
404 -> 405 ;
406 [label="gini = 0.0\nsamples = 1\nvalue = [0, 0, 0 ... 0, 0, 0]"] ;
405 -> 406 ;
407 [label="gini = 0.0\nsamples = 1\nvalue = [0, 0, 0 ... 0, 0, 0]"] ;
405 -> 407 ;
408 [label="X[2] <= 1.5\ngini = 0.833\nsamples = 6\nvalue = [0, 0, 0 ... 0, 0, 0]"] ;
404 -> 408 ;
409 [label="gini = 0.0\nsamples = 1\nvalue = [0, 0, 0 ... 0, 0, 0]"] ;
408 -> 409 ;
410 [label="X[5] <= 21.5\ngini = 0.8\nsamples = 5\nvalue = [0, 0, 0 ... 0, 0, 0]"] ;
408 -> 410 ;
411 [label="gini = 0.0\nsamples = 1\nvalue = [0, 0, 0 ... 0, 0, 0]"] ;
410 -> 411 ;
412 [label="X[2] <= 3.0\ngini = 0.75\nsamples = 4\nvalue = [0, 0, 0 ... 0, 0, 0]"] ;
410 -> 412 ;
413 [label="gini = 0.0\nsamples = 1\nvalue = [0, 0, 0 ... 0, 0, 0]"] ;
412 -> 413 ;
414 [label="X[4] <= 10.5\ngini = 0.667\nsamples = 3\nvalue = [0, 0, 0 ... 0, 0, 0]"] ;
412 -> 414 ;
415 [label="gini = 0.0\nsamples = 1\nvalue = [0, 0, 0 ... 0, 0, 0]"] ;
414 -> 415 ;
416 [label="X[4] <= 12.5\ngini = 0.5\nsamples = 2\nvalue = [0, 0, 0 ... 0, 0, 0]"] ;
414 -> 416 ;
417 [label="gini = 0.0\nsamples = 1\nvalue = [0, 0, 0 ... 0, 0, 0]"] ;
416 -> 417 ;
418 [label="gini = 0.0\nsamples = 1\nvalue = [0, 0, 0 ... 0, 0, 0]"] ;
416 -> 418 ;
419 [label="X[2] <= 1.5\ngini = 0.929\nsamples = 14\nvalue = [0, 0, 0 ... 0, 0, 0]"] ;
387 -> 419 ;
420 [label="X[4] <= 10.5\ngini = 0.667\nsamples = 3\nvalue = [0, 0, 0 ... 0, 0, 0]"] ;
419 -> 420 ;
421 [label="gini = 0.0\nsamples = 1\nvalue = [0, 0, 0 ... 0, 0, 0]"] ;
420 -> 421 ;
422 [label="X[5] <= 20.0\ngini = 0.5\nsamples = 2\nvalue = [0, 0, 0 ... 0, 0, 0]"] ;
420 -> 422 ;
423 [label="gini = 0.0\nsamples = 1\nvalue = [0, 0, 0 ... 0, 0, 0]"] ;
422 -> 423 ;
424 [label="gini = 0.0\nsamples = 1\nvalue = [0, 0, 0 ... 0, 0, 0]"] ;
422 -> 424 ;
425 [label="X[5] <= 13.0\ngini = 0.909\nsamples = 11\nvalue = [0, 0, 0 ... 0, 0, 0]"] ;
419 -> 425 ;
426 [label="gini = 0.0\nsamples = 1\nvalue = [0, 0, 0 ... 0, 0, 0]"] ;
425 -> 426 ;
427 [label="X[2] <= 2.5\ngini = 0.9\nsamples = 10\nvalue = [0, 0, 0 ... 0, 0, 0]"] ;
425 -> 427 ;
428 [label="gini = 0.0\nsamples = 1\nvalue = [0, 0, 0 ... 0, 0, 0]"] ;
427 -> 428 ;
429 [label="X[3] <= 10.0\ngini = 0.889\nsamples = 9\nvalue = [0, 0, 0 ... 0, 0, 0]"] ;
427 -> 429 ;
430 [label="X[5] <= 22.5\ngini = 0.5\nsamples = 2\nvalue = [0, 0, 0 ... 0, 0, 0]"] ;
429 -> 430 ;
431 [label="gini = 0.0\nsamples = 1\nvalue = [0, 0, 0 ... 0, 0, 0]"] ;
430 -> 431 ;
432 [label="gini = 0.0\nsamples = 1\nvalue = [0, 0, 0 ... 0, 0, 0]"] ;
430 -> 432 ;
433 [label="X[5] <= 16.0\ngini = 0.857\nsamples = 7\nvalue = [0, 0, 0 ... 0, 0, 0]"] ;
429 -> 433 ;
434 [label="X[4] <= 10.0\ngini = 0.5\nsamples = 2\nvalue = [0, 0, 0 ... 0, 0, 0]"] ;
433 -> 434 ;
435 [label="gini = 0.0\nsamples = 1\nvalue = [0, 0, 0 ... 0, 0, 0]"] ;
434 -> 435 ;
436 [label="gini = 0.0\nsamples = 1\nvalue = [0, 0, 0 ... 0, 0, 0]"] ;
434 -> 436 ;
437 [label="X[4] <= 11.5\ngini = 0.8\nsamples = 5\nvalue = [0, 0, 0 ... 0, 0, 0]"] ;
433 -> 437 ;
438 [label="X[2] <= 7.5\ngini = 0.75\nsamples = 4\nvalue = [0, 0, 0 ... 0, 0, 0]"] ;
437 -> 438 ;
439 [label="X[5] <= 23.5\ngini = 0.5\nsamples = 2\nvalue = [0, 0, 0 ... 0, 0, 0]"] ;
438 -> 439 ;
440 [label="gini = 0.0\nsamples = 1\nvalue = [0, 0, 0 ... 0, 0, 0]"] ;
439 -> 440 ;
441 [label="gini = 0.0\nsamples = 1\nvalue = [0, 0, 0 ... 0, 0, 0]"] ;
439 -> 441 ;
442 [label="X[5] <= 26.0\ngini = 0.5\nsamples = 2\nvalue = [0, 0, 0 ... 0, 0, 0]"] ;
438 -> 442 ;
443 [label="gini = 0.0\nsamples = 1\nvalue = [0, 0, 0 ... 0, 0, 0]"] ;
442 -> 443 ;
444 [label="gini = 0.0\nsamples = 1\nvalue = [0, 0, 0 ... 0, 0, 0]"] ;
442 -> 444 ;
445 [label="gini = 0.0\nsamples = 1\nvalue = [0, 0, 0 ... 0, 0, 0]"] ;
437 -> 445 ;
446 [label="X[4] <= 7.5\ngini = 0.816\nsamples = 7\nvalue = [0, 0, 0 ... 0, 0, 0]"] ;
386 -> 446 ;
447 [label="gini = 0.0\nsamples = 2\nvalue = [0, 0, 0 ... 0, 0, 0]"] ;
446 -> 447 ;
448 [label="X[3] <= 3.0\ngini = 0.8\nsamples = 5\nvalue = [0, 0, 0 ... 0, 0, 0]"] ;
446 -> 448 ;
449 [label="gini = 0.0\nsamples = 1\nvalue = [0, 0, 0 ... 0, 0, 0]"] ;
448 -> 449 ;
450 [label="X[4] <= 9.5\ngini = 0.75\nsamples = 4\nvalue = [0, 0, 0 ... 0, 0, 0]"] ;
448 -> 450 ;
451 [label="gini = 0.0\nsamples = 1\nvalue = [0, 0, 0 ... 0, 0, 0]"] ;
450 -> 451 ;
452 [label="X[5] <= 21.5\ngini = 0.667\nsamples = 3\nvalue = [0, 0, 0 ... 0, 0, 0]"] ;
450 -> 452 ;
453 [label="gini = 0.0\nsamples = 1\nvalue = [0, 0, 0 ... 0, 0, 0]"] ;
452 -> 453 ;
454 [label="X[5] <= 29.0\ngini = 0.5\nsamples = 2\nvalue = [0, 0, 0 ... 0, 0, 0]"] ;
452 -> 454 ;
455 [label="gini = 0.0\nsamples = 1\nvalue = [0, 0, 0 ... 0, 0, 0]"] ;
454 -> 455 ;
456 [label="gini = 0.0\nsamples = 1\nvalue = [0, 0, 0 ... 0, 0, 0]"] ;
454 -> 456 ;
457 [label="X[3] <= 26.5\ngini = 0.72\nsamples = 5\nvalue = [0, 0, 0 ... 0, 0, 0]"] ;
385 -> 457 ;
458 [label="gini = 0.0\nsamples = 2\nvalue = [0, 0, 0 ... 0, 0, 0]"] ;
457 -> 458 ;
459 [label="X[2] <= 2.0\ngini = 0.667\nsamples = 3\nvalue = [0, 0, 0 ... 0, 0, 0]"] ;
457 -> 459 ;
460 [label="gini = 0.0\nsamples = 1\nvalue = [0, 0, 0 ... 0, 0, 0]"] ;
459 -> 460 ;
461 [label="X[5] <= 17.5\ngini = 0.5\nsamples = 2\nvalue = [0, 0, 0 ... 0, 0, 0]"] ;
459 -> 461 ;
462 [label="gini = 0.0\nsamples = 1\nvalue = [0, 0, 0 ... 0, 0, 0]"] ;
461 -> 462 ;
463 [label="gini = 0.0\nsamples = 1\nvalue = [0, 0, 0 ... 0, 0, 0]"] ;
461 -> 463 ;
464 [label="X[2] <= 8.0\ngini = 0.901\nsamples = 18\nvalue = [0, 0, 0 ... 0, 0, 0]"] ;
384 -> 464 ;
465 [label="X[5] <= 25.5\ngini = 0.911\nsamples = 13\nvalue = [0, 0, 0 ... 0, 0, 0]"] ;
464 -> 465 ;
466 [label="X[5] <= 20.0\ngini = 0.816\nsamples = 7\nvalue = [0, 0, 0 ... 0, 0, 0]"] ;
465 -> 466 ;
467 [label="X[4] <= 9.5\ngini = 0.75\nsamples = 4\nvalue = [0, 0, 0 ... 0, 0, 0]"] ;
466 -> 467 ;
468 [label="X[2] <= 2.0\ngini = 0.5\nsamples = 2\nvalue = [0, 0, 0 ... 0, 0, 0]"] ;
467 -> 468 ;
469 [label="gini = 0.0\nsamples = 1\nvalue = [0, 0, 0 ... 0, 0, 0]"] ;
468 -> 469 ;
470 [label="gini = 0.0\nsamples = 1\nvalue = [0, 0, 0 ... 0, 0, 0]"] ;
468 -> 470 ;
471 [label="X[2] <= 4.0\ngini = 0.5\nsamples = 2\nvalue = [0, 0, 0 ... 0, 0, 0]"] ;
467 -> 471 ;
472 [label="gini = 0.0\nsamples = 1\nvalue = [0, 0, 0 ... 0, 0, 0]"] ;
471 -> 472 ;
473 [label="gini = 0.0\nsamples = 1\nvalue = [0, 0, 0 ... 0, 0, 0]"] ;
471 -> 473 ;
474 [label="X[2] <= 1.5\ngini = 0.444\nsamples = 3\nvalue = [0, 0, 0 ... 0, 0, 0]"] ;
466 -> 474 ;
475 [label="gini = 0.0\nsamples = 1\nvalue = [0, 0, 0 ... 0, 0, 0]"] ;
474 -> 475 ;
476 [label="gini = 0.0\nsamples = 2\nvalue = [0, 0, 0 ... 0, 0, 0]"] ;
474 -> 476 ;
477 [label="X[3] <= 7.0\ngini = 0.833\nsamples = 6\nvalue = [0, 0, 0 ... 0, 0, 0]"] ;
465 -> 477 ;
478 [label="gini = 0.0\nsamples = 1\nvalue = [0, 0, 0 ... 0, 0, 0]"] ;
477 -> 478 ;
479 [label="X[2] <= 1.5\ngini = 0.8\nsamples = 5\nvalue = [0, 0, 0 ... 0, 0, 0]"] ;
477 -> 479 ;
480 [label="gini = 0.0\nsamples = 1\nvalue = [0, 0, 0 ... 0, 0, 0]"] ;
479 -> 480 ;
481 [label="X[3] <= 12.5\ngini = 0.75\nsamples = 4\nvalue = [0, 0, 0 ... 0, 0, 0]"] ;
479 -> 481 ;
482 [label="gini = 0.0\nsamples = 1\nvalue = [0, 0, 0 ... 0, 0, 0]"] ;
481 -> 482 ;
483 [label="X[4] <= 9.5\ngini = 0.667\nsamples = 3\nvalue = [0, 0, 0 ... 0, 0, 0]"] ;
481 -> 483 ;
484 [label="gini = 0.0\nsamples = 1\nvalue = [0, 0, 0 ... 0, 0, 0]"] ;
483 -> 484 ;
485 [label="X[3] <= 21.0\ngini = 0.5\nsamples = 2\nvalue = [0, 0, 0 ... 0, 0, 0]"] ;
483 -> 485 ;
486 [label="gini = 0.0\nsamples = 1\nvalue = [0, 0, 0 ... 0, 0, 0]"] ;
485 -> 486 ;
487 [label="gini = 0.0\nsamples = 1\nvalue = [0, 0, 0 ... 0, 0, 0]"] ;
485 -> 487 ;
488 [label="X[3] <= 14.0\ngini = 0.56\nsamples = 5\nvalue = [0, 0, 0 ... 0, 0, 0]"] ;
464 -> 488 ;
489 [label="X[5] <= 26.5\ngini = 0.5\nsamples = 2\nvalue = [0, 0, 0 ... 0, 0, 0]"] ;
488 -> 489 ;
490 [label="gini = 0.0\nsamples = 1\nvalue = [0, 0, 0 ... 0, 0, 0]"] ;
489 -> 490 ;
491 [label="gini = 0.0\nsamples = 1\nvalue = [0, 0, 0 ... 0, 0, 0]"] ;
489 -> 491 ;
492 [label="gini = 0.0\nsamples = 3\nvalue = [0, 0, 0 ... 0, 0, 0]"] ;
488 -> 492 ;
493 [label="X[2] <= 1.5\ngini = 0.953\nsamples = 41\nvalue = [0, 0, 0 ... 0, 0, 0]"] ;
383 -> 493 ;
494 [label="X[3] <= 9.5\ngini = 0.735\nsamples = 7\nvalue = [0, 0, 0 ... 0, 0, 0]"] ;
493 -> 494 ;
495 [label="gini = 0.0\nsamples = 1\nvalue = [0, 0, 0 ... 0, 0, 0]"] ;
494 -> 495 ;
496 [label="X[4] <= 8.5\ngini = 0.667\nsamples = 6\nvalue = [0, 0, 0 ... 0, 0, 0]"] ;
494 -> 496 ;
497 [label="gini = 0.0\nsamples = 1\nvalue = [0, 0, 0 ... 0, 0, 0]"] ;
496 -> 497 ;
498 [label="X[5] <= 16.5\ngini = 0.56\nsamples = 5\nvalue = [0, 0, 0 ... 0, 0, 0]"] ;
496 -> 498 ;
499 [label="X[5] <= 11.5\ngini = 0.667\nsamples = 3\nvalue = [0, 0, 0 ... 0, 0, 0]"] ;
498 -> 499 ;
500 [label="gini = 0.0\nsamples = 1\nvalue = [0, 0, 0 ... 0, 0, 0]"] ;
499 -> 500 ;
501 [label="X[5] <= 13.5\ngini = 0.5\nsamples = 2\nvalue = [0, 0, 0 ... 0, 0, 0]"] ;
499 -> 501 ;
502 [label="gini = 0.0\nsamples = 1\nvalue = [0, 0, 0 ... 0, 0, 0]"] ;
501 -> 502 ;
503 [label="gini = 0.0\nsamples = 1\nvalue = [0, 0, 0 ... 0, 0, 0]"] ;
501 -> 503 ;
504 [label="gini = 0.0\nsamples = 2\nvalue = [0, 0, 0 ... 0, 0, 0]"] ;
498 -> 504 ;
505 [label="X[2] <= 2.5\ngini = 0.953\nsamples = 34\nvalue = [0, 0, 0 ... 0, 0, 0]"] ;
493 -> 505 ;
506 [label="X[5] <= 20.5\ngini = 0.72\nsamples = 5\nvalue = [0, 0, 0 ... 0, 0, 0]"] ;
505 -> 506 ;
507 [label="gini = 0.0\nsamples = 2\nvalue = [0, 0, 0 ... 0, 0, 0]"] ;
506 -> 507 ;
508 [label="X[5] <= 27.5\ngini = 0.667\nsamples = 3\nvalue = [0, 0, 0 ... 0, 0, 0]"] ;
506 -> 508 ;
509 [label="gini = 0.0\nsamples = 1\nvalue = [0, 0, 0 ... 0, 0, 0]"] ;
508 -> 509 ;
510 [label="X[3] <= 6.5\ngini = 0.5\nsamples = 2\nvalue = [0, 0, 0 ... 0, 0, 0]"] ;
508 -> 510 ;
511 [label="gini = 0.0\nsamples = 1\nvalue = [0, 0, 0 ... 0, 0, 0]"] ;
510 -> 511 ;
512 [label="gini = 0.0\nsamples = 1\nvalue = [0, 0, 0 ... 0, 0, 0]"] ;
510 -> 512 ;
513 [label="X[2] <= 11.5\ngini = 0.944\nsamples = 29\nvalue = [0, 0, 0 ... 0, 0, 0]"] ;
505 -> 513 ;
514 [label="X[4] <= 7.5\ngini = 0.903\nsamples = 19\nvalue = [0, 0, 0 ... 0, 0, 0]"] ;
513 -> 514 ;
515 [label="gini = 0.0\nsamples = 2\nvalue = [0, 0, 0 ... 0, 0, 0]"] ;
514 -> 515 ;
516 [label="X[4] <= 13.5\ngini = 0.92\nsamples = 17\nvalue = [0, 0, 0 ... 0, 0, 0]"] ;
514 -> 516 ;
517 [label="X[4] <= 9.5\ngini = 0.916\nsamples = 15\nvalue = [0, 0, 0 ... 0, 0, 0]"] ;
516 -> 517 ;
518 [label="X[2] <= 3.5\ngini = 0.625\nsamples = 4\nvalue = [0, 0, 0 ... 0, 0, 0]"] ;
517 -> 518 ;
519 [label="X[0] <= 3.5\ngini = 0.5\nsamples = 2\nvalue = [0, 0, 0 ... 0, 0, 0]"] ;
518 -> 519 ;
520 [label="gini = 0.0\nsamples = 1\nvalue = [0, 0, 0 ... 0, 0, 0]"] ;
519 -> 520 ;
521 [label="gini = 0.0\nsamples = 1\nvalue = [0, 0, 0 ... 0, 0, 0]"] ;
519 -> 521 ;
522 [label="gini = 0.0\nsamples = 2\nvalue = [0, 0, 0 ... 0, 0, 0]"] ;
518 -> 522 ;
523 [label="X[4] <= 10.5\ngini = 0.893\nsamples = 11\nvalue = [0, 0, 0 ... 0, 0, 0]"] ;
517 -> 523 ;
524 [label="gini = 0.0\nsamples = 2\nvalue = [0, 0, 0 ... 0, 0, 0]"] ;
523 -> 524 ;
525 [label="X[5] <= 17.5\ngini = 0.889\nsamples = 9\nvalue = [0, 0, 0 ... 0, 0, 0]"] ;
523 -> 525 ;
526 [label="X[3] <= 9.5\ngini = 0.5\nsamples = 2\nvalue = [0, 0, 0 ... 0, 0, 0]"] ;
525 -> 526 ;
527 [label="gini = 0.0\nsamples = 1\nvalue = [0, 0, 0 ... 0, 0, 0]"] ;
526 -> 527 ;
528 [label="gini = 0.0\nsamples = 1\nvalue = [0, 0, 0 ... 0, 0, 0]"] ;
526 -> 528 ;
529 [label="X[3] <= 5.0\ngini = 0.857\nsamples = 7\nvalue = [0, 0, 0 ... 0, 0, 0]"] ;
525 -> 529 ;
530 [label="gini = 0.0\nsamples = 1\nvalue = [0, 0, 0 ... 0, 0, 0]"] ;
529 -> 530 ;
531 [label="X[5] <= 22.5\ngini = 0.833\nsamples = 6\nvalue = [0, 0, 0 ... 0, 0, 0]"] ;
529 -> 531 ;
532 [label="gini = 0.0\nsamples = 1\nvalue = [0, 0, 0 ... 0, 0, 0]"] ;
531 -> 532 ;
533 [label="X[0] <= 3.5\ngini = 0.8\nsamples = 5\nvalue = [0, 0, 0 ... 0, 0, 0]"] ;
531 -> 533 ;
534 [label="gini = 0.0\nsamples = 1\nvalue = [0, 0, 0 ... 0, 0, 0]"] ;
533 -> 534 ;
535 [label="X[4] <= 12.5\ngini = 0.75\nsamples = 4\nvalue = [0, 0, 0 ... 0, 0, 0]"] ;
533 -> 535 ;
536 [label="X[5] <= 28.0\ngini = 0.5\nsamples = 2\nvalue = [0, 0, 0 ... 0, 0, 0]"] ;
535 -> 536 ;
537 [label="gini = 0.0\nsamples = 1\nvalue = [0, 0, 0 ... 0, 0, 0]"] ;
536 -> 537 ;
538 [label="gini = 0.0\nsamples = 1\nvalue = [0, 0, 0 ... 0, 0, 0]"] ;
536 -> 538 ;
539 [label="X[5] <= 28.0\ngini = 0.5\nsamples = 2\nvalue = [0, 0, 0 ... 0, 0, 0]"] ;
535 -> 539 ;
540 [label="gini = 0.0\nsamples = 1\nvalue = [0, 0, 0 ... 0, 0, 0]"] ;
539 -> 540 ;
541 [label="gini = 0.0\nsamples = 1\nvalue = [0, 0, 0 ... 0, 0, 0]"] ;
539 -> 541 ;
542 [label="gini = 0.0\nsamples = 2\nvalue = [0, 0, 0 ... 0, 0, 0]"] ;
516 -> 542 ;
543 [label="X[5] <= 15.5\ngini = 0.88\nsamples = 10\nvalue = [0, 0, 0 ... 0, 0, 0]"] ;
513 -> 543 ;
544 [label="X[5] <= 12.5\ngini = 0.625\nsamples = 4\nvalue = [0, 0, 0 ... 0, 0, 0]"] ;
543 -> 544 ;
545 [label="X[4] <= 9.0\ngini = 0.5\nsamples = 2\nvalue = [0, 0, 0 ... 0, 0, 0]"] ;
544 -> 545 ;
546 [label="gini = 0.0\nsamples = 1\nvalue = [0, 0, 0 ... 0, 0, 0]"] ;
545 -> 546 ;
547 [label="gini = 0.0\nsamples = 1\nvalue = [0, 0, 0 ... 0, 0, 0]"] ;
545 -> 547 ;
548 [label="gini = 0.0\nsamples = 2\nvalue = [0, 0, 0 ... 0, 0, 0]"] ;
544 -> 548 ;
549 [label="X[3] <= 5.5\ngini = 0.833\nsamples = 6\nvalue = [0, 0, 0 ... 0, 0, 0]"] ;
543 -> 549 ;
550 [label="X[5] <= 24.5\ngini = 0.5\nsamples = 2\nvalue = [0, 0, 0 ... 0, 0, 0]"] ;
549 -> 550 ;
551 [label="gini = 0.0\nsamples = 1\nvalue = [0, 0, 0 ... 0, 0, 0]"] ;
550 -> 551 ;
552 [label="gini = 0.0\nsamples = 1\nvalue = [0, 0, 0 ... 0, 0, 0]"] ;
550 -> 552 ;
553 [label="X[4] <= 9.5\ngini = 0.75\nsamples = 4\nvalue = [0, 0, 0 ... 0, 0, 0]"] ;
549 -> 553 ;
554 [label="gini = 0.0\nsamples = 1\nvalue = [0, 0, 0 ... 0, 0, 0]"] ;
553 -> 554 ;
555 [label="X[0] <= 3.5\ngini = 0.667\nsamples = 3\nvalue = [0, 0, 0 ... 0, 0, 0]"] ;
553 -> 555 ;
556 [label="gini = 0.0\nsamples = 1\nvalue = [0, 0, 0 ... 0, 0, 0]"] ;
555 -> 556 ;
557 [label="X[5] <= 27.5\ngini = 0.5\nsamples = 2\nvalue = [0, 0, 0 ... 0, 0, 0]"] ;
555 -> 557 ;
558 [label="gini = 0.0\nsamples = 1\nvalue = [0, 0, 0 ... 0, 0, 0]"] ;
557 -> 558 ;
559 [label="gini = 0.0\nsamples = 1\nvalue = [0, 0, 0 ... 0, 0, 0]"] ;
557 -> 559 ;
560 [label="X[5] <= 20.5\ngini = 0.993\nsamples = 203\nvalue = [0, 0, 0 ... 0, 0, 0]"] ;
170 -> 560 ;
561 [label="X[5] <= 7.5\ngini = 0.991\nsamples = 144\nvalue = [0, 0, 0 ... 0, 0, 0]"] ;
560 -> 561 ;
562 [label="X[5] <= 6.0\ngini = 0.989\nsamples = 103\nvalue = [0, 0, 0 ... 0, 0, 0]"] ;
561 -> 562 ;
563 [label="X[5] <= 4.0\ngini = 0.988\nsamples = 97\nvalue = [0, 0, 0 ... 0, 0, 0]"] ;
562 -> 563 ;
564 [label="X[3] <= 25.5\ngini = 0.988\nsamples = 91\nvalue = [0, 0, 0 ... 0, 0, 0]"] ;
563 -> 564 ;
565 [label="X[3] <= 22.5\ngini = 0.985\nsamples = 72\nvalue = [0, 0, 0 ... 0, 0, 0]"] ;
564 -> 565 ;
566 [label="X[4] <= 15.5\ngini = 0.983\nsamples = 60\nvalue = [0, 0, 0 ... 0, 0, 0]"] ;
565 -> 566 ;
567 [label="X[0] <= 0.5\ngini = 0.903\nsamples = 12\nvalue = [0, 0, 0 ... 0, 0, 0]"] ;
566 -> 567 ;
568 [label="X[2] <= 8.5\ngini = 0.625\nsamples = 4\nvalue = [0, 0, 0 ... 0, 0, 0]"] ;
567 -> 568 ;
569 [label="gini = 0.0\nsamples = 1\nvalue = [0, 0, 0 ... 0, 0, 0]"] ;
568 -> 569 ;
570 [label="gini = 0.444\nsamples = 3\nvalue = [0, 0, 0 ... 0, 0, 0]"] ;
568 -> 570 ;
571 [label="X[3] <= 2.0\ngini = 0.875\nsamples = 8\nvalue = [0, 0, 0 ... 0, 0, 0]"] ;
567 -> 571 ;
572 [label="gini = 0.0\nsamples = 1\nvalue = [0, 0, 0 ... 0, 0, 0]"] ;
571 -> 572 ;
573 [label="X[5] <= 1.5\ngini = 0.857\nsamples = 7\nvalue = [0, 0, 0 ... 0, 0, 0]"] ;
571 -> 573 ;
574 [label="X[3] <= 4.5\ngini = 0.833\nsamples = 6\nvalue = [0, 0, 0 ... 0, 0, 0]"] ;
573 -> 574 ;
575 [label="gini = 0.0\nsamples = 1\nvalue = [0, 0, 0 ... 0, 0, 0]"] ;
574 -> 575 ;
576 [label="X[0] <= 1.5\ngini = 0.8\nsamples = 5\nvalue = [0, 0, 0 ... 0, 0, 0]"] ;
574 -> 576 ;
577 [label="gini = 0.0\nsamples = 1\nvalue = [0, 0, 0 ... 0, 0, 0]"] ;
576 -> 577 ;
578 [label="X[3] <= 7.5\ngini = 0.75\nsamples = 4\nvalue = [0, 0, 0 ... 0, 0, 0]"] ;
576 -> 578 ;
579 [label="gini = 0.0\nsamples = 1\nvalue = [0, 0, 0 ... 0, 0, 0]"] ;
578 -> 579 ;
580 [label="X[2] <= 3.5\ngini = 0.667\nsamples = 3\nvalue = [0, 0, 0 ... 0, 0, 0]"] ;
578 -> 580 ;
581 [label="gini = 0.0\nsamples = 1\nvalue = [0, 0, 0 ... 0, 0, 0]"] ;
580 -> 581 ;
582 [label="X[3] <= 15.5\ngini = 0.5\nsamples = 2\nvalue = [0, 0, 0 ... 0, 0, 0]"] ;
580 -> 582 ;
583 [label="gini = 0.0\nsamples = 1\nvalue = [0, 0, 0 ... 0, 0, 0]"] ;
582 -> 583 ;
584 [label="gini = 0.0\nsamples = 1\nvalue = [0, 0, 0 ... 0, 0, 0]"] ;
582 -> 584 ;
585 [label="gini = 0.0\nsamples = 1\nvalue = [0, 0, 0 ... 0, 0, 0]"] ;
573 -> 585 ;
586 [label="X[2] <= 1.5\ngini = 0.979\nsamples = 48\nvalue = [0, 0, 0 ... 0, 0, 0]"] ;
566 -> 586 ;
587 [label="X[3] <= 9.0\ngini = 0.875\nsamples = 8\nvalue = [0, 0, 0 ... 0, 0, 0]"] ;
586 -> 587 ;
588 [label="X[4] <= 18.0\ngini = 0.667\nsamples = 3\nvalue = [0, 0, 0 ... 0, 0, 0]"] ;
587 -> 588 ;
589 [label="gini = 0.0\nsamples = 1\nvalue = [0, 0, 0 ... 0, 0, 0]"] ;
588 -> 589 ;
590 [label="gini = 0.5\nsamples = 2\nvalue = [0, 0, 0 ... 0, 0, 0]"] ;
588 -> 590 ;
591 [label="X[3] <= 17.0\ngini = 0.8\nsamples = 5\nvalue = [0, 0, 0 ... 0, 0, 0]"] ;
587 -> 591 ;
592 [label="X[4] <= 17.5\ngini = 0.75\nsamples = 4\nvalue = [0, 0, 0 ... 0, 0, 0]"] ;
591 -> 592 ;
593 [label="gini = 0.0\nsamples = 1\nvalue = [0, 0, 0 ... 0, 0, 0]"] ;
592 -> 593 ;
594 [label="X[4] <= 18.5\ngini = 0.667\nsamples = 3\nvalue = [0, 0, 0 ... 0, 0, 0]"] ;
592 -> 594 ;
595 [label="gini = 0.0\nsamples = 1\nvalue = [0, 0, 0 ... 0, 0, 0]"] ;
594 -> 595 ;
596 [label="gini = 0.5\nsamples = 2\nvalue = [0, 0, 0 ... 0, 0, 0]"] ;
594 -> 596 ;
597 [label="gini = 0.0\nsamples = 1\nvalue = [0, 0, 0 ... 0, 0, 0]"] ;
591 -> 597 ;
598 [label="X[5] <= 0.5\ngini = 0.975\nsamples = 40\nvalue = [0, 0, 0 ... 0, 0, 0]"] ;
586 -> 598 ;
599 [label="X[4] <= 16.5\ngini = 0.974\nsamples = 39\nvalue = [0, 0, 0 ... 0, 0, 0]"] ;
598 -> 599 ;
600 [label="X[2] <= 4.0\ngini = 0.875\nsamples = 8\nvalue = [0, 0, 0 ... 0, 0, 0]"] ;
599 -> 600 ;
601 [label="X[3] <= 10.5\ngini = 0.5\nsamples = 2\nvalue = [0, 0, 0 ... 0, 0, 0]"] ;
600 -> 601 ;
602 [label="gini = 0.0\nsamples = 1\nvalue = [0, 0, 0 ... 0, 0, 0]"] ;
601 -> 602 ;
603 [label="gini = 0.0\nsamples = 1\nvalue = [0, 0, 0 ... 0, 0, 0]"] ;
601 -> 603 ;
604 [label="X[3] <= 2.5\ngini = 0.833\nsamples = 6\nvalue = [0, 0, 0 ... 0, 0, 0]"] ;
600 -> 604 ;
605 [label="gini = 0.0\nsamples = 1\nvalue = [0, 0, 0 ... 0, 0, 0]"] ;
604 -> 605 ;
606 [label="X[0] <= 1.0\ngini = 0.8\nsamples = 5\nvalue = [0, 0, 0 ... 0, 0, 0]"] ;
604 -> 606 ;
607 [label="gini = 0.0\nsamples = 1\nvalue = [0, 0, 0 ... 0, 0, 0]"] ;
606 -> 607 ;
608 [label="X[3] <= 6.5\ngini = 0.75\nsamples = 4\nvalue = [0, 0, 0 ... 0, 0, 0]"] ;
606 -> 608 ;
609 [label="gini = 0.0\nsamples = 1\nvalue = [0, 0, 0 ... 0, 0, 0]"] ;
608 -> 609 ;
610 [label="X[0] <= 2.5\ngini = 0.667\nsamples = 3\nvalue = [0, 0, 0 ... 0, 0, 0]"] ;
608 -> 610 ;
611 [label="X[3] <= 14.5\ngini = 0.5\nsamples = 2\nvalue = [0, 0, 0 ... 0, 0, 0]"] ;
610 -> 611 ;
612 [label="gini = 0.0\nsamples = 1\nvalue = [0, 0, 0 ... 0, 0, 0]"] ;
611 -> 612 ;
613 [label="gini = 0.0\nsamples = 1\nvalue = [0, 0, 0 ... 0, 0, 0]"] ;
611 -> 613 ;
614 [label="gini = 0.0\nsamples = 1\nvalue = [0, 0, 0 ... 0, 0, 0]"] ;
610 -> 614 ;
615 [label="X[3] <= 2.0\ngini = 0.968\nsamples = 31\nvalue = [0, 0, 0 ... 0, 0, 0]"] ;
599 -> 615 ;
616 [label="X[4] <= 18.0\ngini = 0.5\nsamples = 2\nvalue = [0, 0, 0 ... 0, 0, 0]"] ;
615 -> 616 ;
617 [label="gini = 0.0\nsamples = 1\nvalue = [0, 0, 0 ... 0, 0, 0]"] ;
616 -> 617 ;
618 [label="gini = 0.0\nsamples = 1\nvalue = [0, 0, 0 ... 0, 0, 0]"] ;
616 -> 618 ;
619 [label="X[4] <= 17.5\ngini = 0.966\nsamples = 29\nvalue = [0, 0, 0 ... 0, 0, 0]"] ;
615 -> 619 ;
620 [label="X[3] <= 7.5\ngini = 0.923\nsamples = 13\nvalue = [0, 0, 0 ... 0, 0, 0]"] ;
619 -> 620 ;
621 [label="X[2] <= 8.5\ngini = 0.667\nsamples = 3\nvalue = [0, 0, 0 ... 0, 0, 0]"] ;
620 -> 621 ;
622 [label="gini = 0.0\nsamples = 1\nvalue = [0, 0, 0 ... 0, 0, 0]"] ;
621 -> 622 ;
623 [label="gini = 0.5\nsamples = 2\nvalue = [0, 0, 0 ... 0, 0, 0]"] ;
621 -> 623 ;
624 [label="X[2] <= 2.5\ngini = 0.9\nsamples = 10\nvalue = [0, 0, 0 ... 0, 0, 0]"] ;
620 -> 624 ;
625 [label="gini = 0.0\nsamples = 1\nvalue = [0, 0, 0 ... 0, 0, 0]"] ;
624 -> 625 ;
626 [label="X[2] <= 3.5\ngini = 0.889\nsamples = 9\nvalue = [0, 0, 0 ... 0, 0, 0]"] ;
624 -> 626 ;
627 [label="X[3] <= 11.0\ngini = 0.75\nsamples = 4\nvalue = [0, 0, 0 ... 0, 0, 0]"] ;
626 -> 627 ;
628 [label="gini = 0.0\nsamples = 1\nvalue = [0, 0, 0 ... 0, 0, 0]"] ;
627 -> 628 ;
629 [label="gini = 0.667\nsamples = 3\nvalue = [0, 0, 0 ... 0, 0, 0]"] ;
627 -> 629 ;
630 [label="X[2] <= 7.5\ngini = 0.8\nsamples = 5\nvalue = [0, 0, 0 ... 0, 0, 0]"] ;
626 -> 630 ;
631 [label="gini = 0.5\nsamples = 2\nvalue = [0, 0, 0 ... 0, 0, 0]"] ;
630 -> 631 ;
632 [label="X[2] <= 11.5\ngini = 0.667\nsamples = 3\nvalue = [0, 0, 0 ... 0, 0, 0]"] ;
630 -> 632 ;
633 [label="X[3] <= 12.5\ngini = 0.5\nsamples = 2\nvalue = [0, 0, 0 ... 0, 0, 0]"] ;
632 -> 633 ;
634 [label="gini = 0.0\nsamples = 1\nvalue = [0, 0, 0 ... 0, 0, 0]"] ;
633 -> 634 ;
635 [label="gini = 0.0\nsamples = 1\nvalue = [0, 0, 0 ... 0, 0, 0]"] ;
633 -> 635 ;
636 [label="gini = 0.0\nsamples = 1\nvalue = [0, 0, 0 ... 0, 0, 0]"] ;
632 -> 636 ;
637 [label="X[2] <= 3.5\ngini = 0.938\nsamples = 16\nvalue = [0, 0, 0 ... 0, 0, 0]"] ;
619 -> 637 ;
638 [label="X[3] <= 14.0\ngini = 0.75\nsamples = 4\nvalue = [0, 0, 0 ... 0, 0, 0]"] ;
637 -> 638 ;
639 [label="gini = 0.5\nsamples = 2\nvalue = [0, 0, 0 ... 0, 0, 0]"] ;
638 -> 639 ;
640 [label="gini = 0.5\nsamples = 2\nvalue = [0, 0, 0 ... 0, 0, 0]"] ;
638 -> 640 ;
641 [label="X[4] <= 18.5\ngini = 0.917\nsamples = 12\nvalue = [0, 0, 0 ... 0, 0, 0]"] ;
637 -> 641 ;
642 [label="gini = 0.0\nsamples = 1\nvalue = [0, 0, 0 ... 0, 0, 0]"] ;
641 -> 642 ;
643 [label="X[3] <= 3.5\ngini = 0.909\nsamples = 11\nvalue = [0, 0, 0 ... 0, 0, 0]"] ;
641 -> 643 ;
644 [label="gini = 0.5\nsamples = 2\nvalue = [0, 0, 0 ... 0, 0, 0]"] ;
643 -> 644 ;
645 [label="X[3] <= 4.5\ngini = 0.889\nsamples = 9\nvalue = [0, 0, 0 ... 0, 0, 0]"] ;
643 -> 645 ;
646 [label="gini = 0.5\nsamples = 2\nvalue = [0, 0, 0 ... 0, 0, 0]"] ;
645 -> 646 ;
647 [label="X[2] <= 4.5\ngini = 0.857\nsamples = 7\nvalue = [0, 0, 0 ... 0, 0, 0]"] ;
645 -> 647 ;
648 [label="X[0] <= 2.0\ngini = 0.5\nsamples = 2\nvalue = [0, 0, 0 ... 0, 0, 0]"] ;
647 -> 648 ;
649 [label="gini = 0.0\nsamples = 1\nvalue = [0, 0, 0 ... 0, 0, 0]"] ;
648 -> 649 ;
650 [label="gini = 0.0\nsamples = 1\nvalue = [0, 0, 0 ... 0, 0, 0]"] ;
648 -> 650 ;
651 [label="X[2] <= 8.0\ngini = 0.8\nsamples = 5\nvalue = [0, 0, 0 ... 0, 0, 0]"] ;
647 -> 651 ;
652 [label="gini = 0.0\nsamples = 1\nvalue = [0, 0, 0 ... 0, 0, 0]"] ;
651 -> 652 ;
653 [label="X[3] <= 10.0\ngini = 0.75\nsamples = 4\nvalue = [0, 0, 0 ... 0, 0, 0]"] ;
651 -> 653 ;
654 [label="gini = 0.0\nsamples = 1\nvalue = [0, 0, 0 ... 0, 0, 0]"] ;
653 -> 654 ;
655 [label="X[2] <= 11.5\ngini = 0.667\nsamples = 3\nvalue = [0, 0, 0 ... 0, 0, 0]"] ;
653 -> 655 ;
656 [label="gini = 0.0\nsamples = 1\nvalue = [0, 0, 0 ... 0, 0, 0]"] ;
655 -> 656 ;
657 [label="X[3] <= 17.0\ngini = 0.5\nsamples = 2\nvalue = [0, 0, 0 ... 0, 0, 0]"] ;
655 -> 657 ;
658 [label="gini = 0.0\nsamples = 1\nvalue = [0, 0, 0 ... 0, 0, 0]"] ;
657 -> 658 ;
659 [label="gini = 0.0\nsamples = 1\nvalue = [0, 0, 0 ... 0, 0, 0]"] ;
657 -> 659 ;
660 [label="gini = 0.0\nsamples = 1\nvalue = [0, 0, 0 ... 0, 0, 0]"] ;
598 -> 660 ;
661 [label="X[4] <= 17.5\ngini = 0.903\nsamples = 12\nvalue = [0, 0, 0 ... 0, 0, 0]"] ;
565 -> 661 ;
662 [label="X[4] <= 16.0\ngini = 0.75\nsamples = 4\nvalue = [0, 0, 0 ... 0, 0, 0]"] ;
661 -> 662 ;
663 [label="X[0] <= 3.0\ngini = 0.5\nsamples = 2\nvalue = [0, 0, 0 ... 0, 0, 0]"] ;
662 -> 663 ;
664 [label="gini = 0.0\nsamples = 1\nvalue = [0, 0, 0 ... 0, 0, 0]"] ;
663 -> 664 ;
665 [label="gini = 0.0\nsamples = 1\nvalue = [0, 0, 0 ... 0, 0, 0]"] ;
663 -> 665 ;
666 [label="X[0] <= 0.5\ngini = 0.5\nsamples = 2\nvalue = [0, 0, 0 ... 0, 0, 0]"] ;
662 -> 666 ;
667 [label="gini = 0.0\nsamples = 1\nvalue = [0, 0, 0 ... 0, 0, 0]"] ;
666 -> 667 ;
668 [label="gini = 0.0\nsamples = 1\nvalue = [0, 0, 0 ... 0, 0, 0]"] ;
666 -> 668 ;
669 [label="X[0] <= 0.5\ngini = 0.844\nsamples = 8\nvalue = [0, 0, 0 ... 0, 0, 0]"] ;
661 -> 669 ;
670 [label="X[4] <= 18.5\ngini = 0.667\nsamples = 3\nvalue = [0, 0, 0 ... 0, 0, 0]"] ;
669 -> 670 ;
671 [label="gini = 0.5\nsamples = 2\nvalue = [0, 0, 0 ... 0, 0, 0]"] ;
670 -> 671 ;
672 [label="gini = 0.0\nsamples = 1\nvalue = [0, 0, 0 ... 0, 0, 0]"] ;
670 -> 672 ;
673 [label="X[5] <= 0.5\ngini = 0.72\nsamples = 5\nvalue = [0, 0, 0 ... 0, 0, 0]"] ;
669 -> 673 ;
674 [label="X[2] <= 2.5\ngini = 0.444\nsamples = 3\nvalue = [0, 0, 0 ... 0, 0, 0]"] ;
673 -> 674 ;
675 [label="gini = 0.0\nsamples = 1\nvalue = [0, 0, 0 ... 0, 0, 0]"] ;
674 -> 675 ;
676 [label="gini = 0.0\nsamples = 2\nvalue = [0, 0, 0 ... 0, 0, 0]"] ;
674 -> 676 ;
677 [label="X[0] <= 2.0\ngini = 0.5\nsamples = 2\nvalue = [0, 0, 0 ... 0, 0, 0]"] ;
673 -> 677 ;
678 [label="gini = 0.0\nsamples = 1\nvalue = [0, 0, 0 ... 0, 0, 0]"] ;
677 -> 678 ;
679 [label="gini = 0.0\nsamples = 1\nvalue = [0, 0, 0 ... 0, 0, 0]"] ;
677 -> 679 ;
680 [label="X[2] <= 3.5\ngini = 0.936\nsamples = 19\nvalue = [0, 0, 0 ... 0, 0, 0]"] ;
564 -> 680 ;
681 [label="X[3] <= 26.5\ngini = 0.93\nsamples = 16\nvalue = [0, 0, 0 ... 0, 0, 0]"] ;
680 -> 681 ;
682 [label="X[2] <= 1.5\ngini = 0.625\nsamples = 4\nvalue = [0, 0, 0 ... 0, 0, 0]"] ;
681 -> 682 ;
683 [label="gini = 0.0\nsamples = 1\nvalue = [0, 0, 0 ... 0, 0, 0]"] ;
682 -> 683 ;
684 [label="X[2] <= 2.5\ngini = 0.444\nsamples = 3\nvalue = [0, 0, 0 ... 0, 0, 0]"] ;
682 -> 684 ;
685 [label="gini = 0.0\nsamples = 2\nvalue = [0, 0, 0 ... 0, 0, 0]"] ;
684 -> 685 ;
686 [label="gini = 0.0\nsamples = 1\nvalue = [0, 0, 0 ... 0, 0, 0]"] ;
684 -> 686 ;
687 [label="X[4] <= 15.5\ngini = 0.917\nsamples = 12\nvalue = [0, 0, 0 ... 0, 0, 0]"] ;
681 -> 687 ;
688 [label="gini = 0.0\nsamples = 1\nvalue = [0, 0, 0 ... 0, 0, 0]"] ;
687 -> 688 ;
689 [label="X[3] <= 27.5\ngini = 0.909\nsamples = 11\nvalue = [0, 0, 0 ... 0, 0, 0]"] ;
687 -> 689 ;
690 [label="X[2] <= 2.5\ngini = 0.5\nsamples = 2\nvalue = [0, 0, 0 ... 0, 0, 0]"] ;
689 -> 690 ;
691 [label="gini = 0.0\nsamples = 1\nvalue = [0, 0, 0 ... 0, 0, 0]"] ;
690 -> 691 ;
692 [label="gini = 0.0\nsamples = 1\nvalue = [0, 0, 0 ... 0, 0, 0]"] ;
690 -> 692 ;
693 [label="X[3] <= 28.5\ngini = 0.889\nsamples = 9\nvalue = [0, 0, 0 ... 0, 0, 0]"] ;
689 -> 693 ;
694 [label="X[4] <= 17.5\ngini = 0.667\nsamples = 3\nvalue = [0, 0, 0 ... 0, 0, 0]"] ;
693 -> 694 ;
695 [label="gini = 0.0\nsamples = 1\nvalue = [0, 0, 0 ... 0, 0, 0]"] ;
694 -> 695 ;
696 [label="X[2] <= 2.5\ngini = 0.5\nsamples = 2\nvalue = [0, 0, 0 ... 0, 0, 0]"] ;
694 -> 696 ;
697 [label="gini = 0.0\nsamples = 1\nvalue = [0, 0, 0 ... 0, 0, 0]"] ;
696 -> 697 ;
698 [label="gini = 0.0\nsamples = 1\nvalue = [0, 0, 0 ... 0, 0, 0]"] ;
696 -> 698 ;
699 [label="X[4] <= 17.0\ngini = 0.833\nsamples = 6\nvalue = [0, 0, 0 ... 0, 0, 0]"] ;
693 -> 699 ;
700 [label="X[2] <= 2.0\ngini = 0.667\nsamples = 3\nvalue = [0, 0, 0 ... 0, 0, 0]"] ;
699 -> 700 ;
701 [label="gini = 0.5\nsamples = 2\nvalue = [0, 0, 0 ... 0, 0, 0]"] ;
700 -> 701 ;
702 [label="gini = 0.0\nsamples = 1\nvalue = [0, 0, 0 ... 0, 0, 0]"] ;
700 -> 702 ;
703 [label="X[4] <= 18.5\ngini = 0.667\nsamples = 3\nvalue = [0, 0, 0 ... 0, 0, 0]"] ;
699 -> 703 ;
704 [label="gini = 0.0\nsamples = 1\nvalue = [0, 0, 0 ... 0, 0, 0]"] ;
703 -> 704 ;
705 [label="X[0] <= 3.5\ngini = 0.5\nsamples = 2\nvalue = [0, 0, 0 ... 0, 0, 0]"] ;
703 -> 705 ;
706 [label="gini = 0.0\nsamples = 1\nvalue = [0, 0, 0 ... 0, 0, 0]"] ;
705 -> 706 ;
707 [label="gini = 0.0\nsamples = 1\nvalue = [0, 0, 0 ... 0, 0, 0]"] ;
705 -> 707 ;
708 [label="X[4] <= 16.5\ngini = 0.444\nsamples = 3\nvalue = [0, 0, 0 ... 0, 0, 0]"] ;
680 -> 708 ;
709 [label="gini = 0.0\nsamples = 1\nvalue = [0, 0, 0 ... 0, 0, 0]"] ;
708 -> 709 ;
710 [label="gini = 0.0\nsamples = 2\nvalue = [0, 0, 0 ... 0, 0, 0]"] ;
708 -> 710 ;
711 [label="X[2] <= 11.5\ngini = 0.778\nsamples = 6\nvalue = [0, 0, 0 ... 0, 0, 0]"] ;
563 -> 711 ;
712 [label="X[2] <= 1.5\ngini = 0.75\nsamples = 4\nvalue = [0, 0, 0 ... 0, 0, 0]"] ;
711 -> 712 ;
713 [label="X[0] <= 3.5\ngini = 0.5\nsamples = 2\nvalue = [0, 0, 0 ... 0, 0, 0]"] ;
712 -> 713 ;
714 [label="gini = 0.0\nsamples = 1\nvalue = [0, 0, 0 ... 0, 0, 0]"] ;
713 -> 714 ;
715 [label="gini = 0.0\nsamples = 1\nvalue = [0, 0, 0 ... 0, 0, 0]"] ;
713 -> 715 ;
716 [label="X[3] <= 11.5\ngini = 0.5\nsamples = 2\nvalue = [0, 0, 0 ... 0, 0, 0]"] ;
712 -> 716 ;
717 [label="gini = 0.0\nsamples = 1\nvalue = [0, 0, 0 ... 0, 0, 0]"] ;
716 -> 717 ;
718 [label="gini = 0.0\nsamples = 1\nvalue = [0, 0, 0 ... 0, 0, 0]"] ;
716 -> 718 ;
719 [label="gini = 0.0\nsamples = 2\nvalue = [0, 0, 0 ... 0, 0, 0]"] ;
711 -> 719 ;
720 [label="X[3] <= 26.5\ngini = 0.778\nsamples = 6\nvalue = [0, 0, 0 ... 0, 0, 0]"] ;
562 -> 720 ;
721 [label="X[0] <= 2.0\ngini = 0.75\nsamples = 4\nvalue = [0, 0, 0 ... 0, 0, 0]"] ;
720 -> 721 ;
722 [label="X[2] <= 1.5\ngini = 0.5\nsamples = 2\nvalue = [0, 0, 0 ... 0, 0, 0]"] ;
721 -> 722 ;
723 [label="gini = 0.0\nsamples = 1\nvalue = [0, 0, 0 ... 0, 0, 0]"] ;
722 -> 723 ;
724 [label="gini = 0.0\nsamples = 1\nvalue = [0, 0, 0 ... 0, 0, 0]"] ;
722 -> 724 ;
725 [label="X[2] <= 6.0\ngini = 0.5\nsamples = 2\nvalue = [0, 0, 0 ... 0, 0, 0]"] ;
721 -> 725 ;
726 [label="gini = 0.0\nsamples = 1\nvalue = [0, 0, 0 ... 0, 0, 0]"] ;
725 -> 726 ;
727 [label="gini = 0.0\nsamples = 1\nvalue = [0, 0, 0 ... 0, 0, 0]"] ;
725 -> 727 ;
728 [label="gini = 0.0\nsamples = 2\nvalue = [0, 0, 0 ... 0, 0, 0]"] ;
720 -> 728 ;
729 [label="X[5] <= 10.5\ngini = 0.963\nsamples = 41\nvalue = [0, 0, 0 ... 0, 0, 0]"] ;
561 -> 729 ;
730 [label="X[3] <= 13.5\ngini = 0.833\nsamples = 12\nvalue = [0, 0, 0 ... 0, 0, 0]"] ;
729 -> 730 ;
731 [label="X[5] <= 8.5\ngini = 0.857\nsamples = 7\nvalue = [0, 0, 0 ... 0, 0, 0]"] ;
730 -> 731 ;
732 [label="X[2] <= 3.5\ngini = 0.5\nsamples = 2\nvalue = [0, 0, 0 ... 0, 0, 0]"] ;
731 -> 732 ;
733 [label="gini = 0.0\nsamples = 1\nvalue = [0, 0, 0 ... 0, 0, 0]"] ;
732 -> 733 ;
734 [label="gini = 0.0\nsamples = 1\nvalue = [0, 0, 0 ... 0, 0, 0]"] ;
732 -> 734 ;
735 [label="X[4] <= 16.5\ngini = 0.8\nsamples = 5\nvalue = [0, 0, 0 ... 0, 0, 0]"] ;
731 -> 735 ;
736 [label="X[3] <= 7.0\ngini = 0.5\nsamples = 2\nvalue = [0, 0, 0 ... 0, 0, 0]"] ;
735 -> 736 ;
737 [label="gini = 0.0\nsamples = 1\nvalue = [0, 0, 0 ... 0, 0, 0]"] ;
736 -> 737 ;
738 [label="gini = 0.0\nsamples = 1\nvalue = [0, 0, 0 ... 0, 0, 0]"] ;
736 -> 738 ;
739 [label="X[3] <= 5.0\ngini = 0.667\nsamples = 3\nvalue = [0, 0, 0 ... 0, 0, 0]"] ;
735 -> 739 ;
740 [label="gini = 0.0\nsamples = 1\nvalue = [0, 0, 0 ... 0, 0, 0]"] ;
739 -> 740 ;
741 [label="X[3] <= 10.0\ngini = 0.5\nsamples = 2\nvalue = [0, 0, 0 ... 0, 0, 0]"] ;
739 -> 741 ;
742 [label="gini = 0.0\nsamples = 1\nvalue = [0, 0, 0 ... 0, 0, 0]"] ;
741 -> 742 ;
743 [label="gini = 0.0\nsamples = 1\nvalue = [0, 0, 0 ... 0, 0, 0]"] ;
741 -> 743 ;
744 [label="X[5] <= 9.5\ngini = 0.32\nsamples = 5\nvalue = [0, 0, 0 ... 0, 0, 0]"] ;
730 -> 744 ;
745 [label="X[3] <= 22.5\ngini = 0.5\nsamples = 2\nvalue = [0, 0, 0 ... 0, 0, 0]"] ;
744 -> 745 ;
746 [label="gini = 0.0\nsamples = 1\nvalue = [0, 0, 0 ... 0, 0, 0]"] ;
745 -> 746 ;
747 [label="gini = 0.0\nsamples = 1\nvalue = [0, 0, 0 ... 0, 0, 0]"] ;
745 -> 747 ;
748 [label="gini = 0.0\nsamples = 3\nvalue = [0, 0, 0 ... 0, 0, 0]"] ;
744 -> 748 ;
749 [label="X[2] <= 11.5\ngini = 0.956\nsamples = 29\nvalue = [0, 0, 0 ... 0, 0, 0]"] ;
729 -> 749 ;
750 [label="X[3] <= 12.5\ngini = 0.955\nsamples = 27\nvalue = [0, 0, 0 ... 0, 0, 0]"] ;
749 -> 750 ;
751 [label="X[2] <= 2.0\ngini = 0.84\nsamples = 9\nvalue = [0, 0, 0 ... 0, 0, 0]"] ;
750 -> 751 ;
752 [label="gini = 0.0\nsamples = 2\nvalue = [0, 0, 0 ... 0, 0, 0]"] ;
751 -> 752 ;
753 [label="X[2] <= 3.5\ngini = 0.816\nsamples = 7\nvalue = [0, 0, 0 ... 0, 0, 0]"] ;
751 -> 753 ;
754 [label="X[4] <= 17.0\ngini = 0.444\nsamples = 3\nvalue = [0, 0, 0 ... 0, 0, 0]"] ;
753 -> 754 ;
755 [label="gini = 0.0\nsamples = 1\nvalue = [0, 0, 0 ... 0, 0, 0]"] ;
754 -> 755 ;
756 [label="gini = 0.0\nsamples = 2\nvalue = [0, 0, 0 ... 0, 0, 0]"] ;
754 -> 756 ;
757 [label="X[2] <= 4.5\ngini = 0.75\nsamples = 4\nvalue = [0, 0, 0 ... 0, 0, 0]"] ;
753 -> 757 ;
758 [label="X[3] <= 10.5\ngini = 0.5\nsamples = 2\nvalue = [0, 0, 0 ... 0, 0, 0]"] ;
757 -> 758 ;
759 [label="gini = 0.0\nsamples = 1\nvalue = [0, 0, 0 ... 0, 0, 0]"] ;
758 -> 759 ;
760 [label="gini = 0.0\nsamples = 1\nvalue = [0, 0, 0 ... 0, 0, 0]"] ;
758 -> 760 ;
761 [label="X[5] <= 17.5\ngini = 0.5\nsamples = 2\nvalue = [0, 0, 0 ... 0, 0, 0]"] ;
757 -> 761 ;
762 [label="gini = 0.0\nsamples = 1\nvalue = [0, 0, 0 ... 0, 0, 0]"] ;
761 -> 762 ;
763 [label="gini = 0.0\nsamples = 1\nvalue = [0, 0, 0 ... 0, 0, 0]"] ;
761 -> 763 ;
764 [label="X[5] <= 11.5\ngini = 0.944\nsamples = 18\nvalue = [0, 0, 0 ... 0, 0, 0]"] ;
750 -> 764 ;
765 [label="gini = 0.0\nsamples = 1\nvalue = [0, 0, 0 ... 0, 0, 0]"] ;
764 -> 765 ;
766 [label="X[3] <= 14.0\ngini = 0.941\nsamples = 17\nvalue = [0, 0, 0 ... 0, 0, 0]"] ;
764 -> 766 ;
767 [label="X[5] <= 17.0\ngini = 0.5\nsamples = 2\nvalue = [0, 0, 0 ... 0, 0, 0]"] ;
766 -> 767 ;
768 [label="gini = 0.0\nsamples = 1\nvalue = [0, 0, 0 ... 0, 0, 0]"] ;
767 -> 768 ;
769 [label="gini = 0.0\nsamples = 1\nvalue = [0, 0, 0 ... 0, 0, 0]"] ;
767 -> 769 ;
770 [label="X[0] <= 0.5\ngini = 0.933\nsamples = 15\nvalue = [0, 0, 0 ... 0, 0, 0]"] ;
766 -> 770 ;
771 [label="X[2] <= 1.5\ngini = 0.8\nsamples = 5\nvalue = [0, 0, 0 ... 0, 0, 0]"] ;
770 -> 771 ;
772 [label="X[4] <= 17.5\ngini = 0.5\nsamples = 2\nvalue = [0, 0, 0 ... 0, 0, 0]"] ;
771 -> 772 ;
773 [label="gini = 0.0\nsamples = 1\nvalue = [0, 0, 0 ... 0, 0, 0]"] ;
772 -> 773 ;
774 [label="gini = 0.0\nsamples = 1\nvalue = [0, 0, 0 ... 0, 0, 0]"] ;
772 -> 774 ;
775 [label="X[4] <= 17.0\ngini = 0.667\nsamples = 3\nvalue = [0, 0, 0 ... 0, 0, 0]"] ;
771 -> 775 ;
776 [label="X[2] <= 6.5\ngini = 0.5\nsamples = 2\nvalue = [0, 0, 0 ... 0, 0, 0]"] ;
775 -> 776 ;
777 [label="gini = 0.0\nsamples = 1\nvalue = [0, 0, 0 ... 0, 0, 0]"] ;
776 -> 777 ;
778 [label="gini = 0.0\nsamples = 1\nvalue = [0, 0, 0 ... 0, 0, 0]"] ;
776 -> 778 ;
779 [label="gini = 0.0\nsamples = 1\nvalue = [0, 0, 0 ... 0, 0, 0]"] ;
775 -> 779 ;
780 [label="X[3] <= 16.5\ngini = 0.9\nsamples = 10\nvalue = [0, 0, 0 ... 0, 0, 0]"] ;
770 -> 780 ;
781 [label="gini = 0.0\nsamples = 1\nvalue = [0, 0, 0 ... 0, 0, 0]"] ;
780 -> 781 ;
782 [label="X[4] <= 16.0\ngini = 0.889\nsamples = 9\nvalue = [0, 0, 0 ... 0, 0, 0]"] ;
780 -> 782 ;
783 [label="X[5] <= 17.5\ngini = 0.667\nsamples = 3\nvalue = [0, 0, 0 ... 0, 0, 0]"] ;
782 -> 783 ;
784 [label="gini = 0.0\nsamples = 1\nvalue = [0, 0, 0 ... 0, 0, 0]"] ;
783 -> 784 ;
785 [label="gini = 0.5\nsamples = 2\nvalue = [0, 0, 0 ... 0, 0, 0]"] ;
783 -> 785 ;
786 [label="X[2] <= 2.5\ngini = 0.833\nsamples = 6\nvalue = [0, 0, 0 ... 0, 0, 0]"] ;
782 -> 786 ;
787 [label="X[4] <= 18.5\ngini = 0.5\nsamples = 2\nvalue = [0, 0, 0 ... 0, 0, 0]"] ;
786 -> 787 ;
788 [label="gini = 0.0\nsamples = 1\nvalue = [0, 0, 0 ... 0, 0, 0]"] ;
787 -> 788 ;
789 [label="gini = 0.0\nsamples = 1\nvalue = [0, 0, 0 ... 0, 0, 0]"] ;
787 -> 789 ;
790 [label="X[0] <= 2.5\ngini = 0.75\nsamples = 4\nvalue = [0, 0, 0 ... 0, 0, 0]"] ;
786 -> 790 ;
791 [label="gini = 0.0\nsamples = 1\nvalue = [0, 0, 0 ... 0, 0, 0]"] ;
790 -> 791 ;
792 [label="X[5] <= 12.5\ngini = 0.667\nsamples = 3\nvalue = [0, 0, 0 ... 0, 0, 0]"] ;
790 -> 792 ;
793 [label="gini = 0.0\nsamples = 1\nvalue = [0, 0, 0 ... 0, 0, 0]"] ;
792 -> 793 ;
794 [label="X[5] <= 14.0\ngini = 0.5\nsamples = 2\nvalue = [0, 0, 0 ... 0, 0, 0]"] ;
792 -> 794 ;
795 [label="gini = 0.0\nsamples = 1\nvalue = [0, 0, 0 ... 0, 0, 0]"] ;
794 -> 795 ;
796 [label="gini = 0.0\nsamples = 1\nvalue = [0, 0, 0 ... 0, 0, 0]"] ;
794 -> 796 ;
797 [label="gini = 0.0\nsamples = 2\nvalue = [0, 0, 0 ... 0, 0, 0]"] ;
749 -> 797 ;
798 [label="X[0] <= 1.5\ngini = 0.975\nsamples = 59\nvalue = [0, 0, 0 ... 0, 0, 0]"] ;
560 -> 798 ;
799 [label="X[4] <= 18.5\ngini = 0.96\nsamples = 30\nvalue = [0, 0, 0 ... 0, 0, 0]"] ;
798 -> 799 ;
800 [label="X[4] <= 15.5\ngini = 0.946\nsamples = 22\nvalue = [0, 0, 0 ... 0, 0, 0]"] ;
799 -> 800 ;
801 [label="X[3] <= 11.5\ngini = 0.816\nsamples = 7\nvalue = [0, 0, 0 ... 0, 0, 0]"] ;
800 -> 801 ;
802 [label="X[3] <= 6.0\ngini = 0.444\nsamples = 3\nvalue = [0, 0, 0 ... 0, 0, 0]"] ;
801 -> 802 ;
803 [label="gini = 0.0\nsamples = 1\nvalue = [0, 0, 0 ... 0, 0, 0]"] ;
802 -> 803 ;
804 [label="gini = 0.0\nsamples = 2\nvalue = [0, 0, 0 ... 0, 0, 0]"] ;
802 -> 804 ;
805 [label="X[0] <= 0.5\ngini = 0.75\nsamples = 4\nvalue = [0, 0, 0 ... 0, 0, 0]"] ;
801 -> 805 ;
806 [label="X[3] <= 17.0\ngini = 0.5\nsamples = 2\nvalue = [0, 0, 0 ... 0, 0, 0]"] ;
805 -> 806 ;
807 [label="gini = 0.0\nsamples = 1\nvalue = [0, 0, 0 ... 0, 0, 0]"] ;
806 -> 807 ;
808 [label="gini = 0.0\nsamples = 1\nvalue = [0, 0, 0 ... 0, 0, 0]"] ;
806 -> 808 ;
809 [label="X[2] <= 7.0\ngini = 0.5\nsamples = 2\nvalue = [0, 0, 0 ... 0, 0, 0]"] ;
805 -> 809 ;
810 [label="gini = 0.0\nsamples = 1\nvalue = [0, 0, 0 ... 0, 0, 0]"] ;
809 -> 810 ;
811 [label="gini = 0.0\nsamples = 1\nvalue = [0, 0, 0 ... 0, 0, 0]"] ;
809 -> 811 ;
812 [label="X[0] <= 0.5\ngini = 0.933\nsamples = 15\nvalue = [0, 0, 0 ... 0, 0, 0]"] ;
800 -> 812 ;
813 [label="X[5] <= 25.5\ngini = 0.9\nsamples = 10\nvalue = [0, 0, 0 ... 0, 0, 0]"] ;
812 -> 813 ;
814 [label="gini = 0.0\nsamples = 1\nvalue = [0, 0, 0 ... 0, 0, 0]"] ;
813 -> 814 ;
815 [label="X[3] <= 7.5\ngini = 0.889\nsamples = 9\nvalue = [0, 0, 0 ... 0, 0, 0]"] ;
813 -> 815 ;
816 [label="X[4] <= 17.0\ngini = 0.667\nsamples = 3\nvalue = [0, 0, 0 ... 0, 0, 0]"] ;
815 -> 816 ;
817 [label="gini = 0.0\nsamples = 1\nvalue = [0, 0, 0 ... 0, 0, 0]"] ;
816 -> 817 ;
818 [label="gini = 0.5\nsamples = 2\nvalue = [0, 0, 0 ... 0, 0, 0]"] ;
816 -> 818 ;
819 [label="X[2] <= 2.5\ngini = 0.833\nsamples = 6\nvalue = [0, 0, 0 ... 0, 0, 0]"] ;
815 -> 819 ;
820 [label="X[3] <= 20.0\ngini = 0.5\nsamples = 2\nvalue = [0, 0, 0 ... 0, 0, 0]"] ;
819 -> 820 ;
821 [label="gini = 0.0\nsamples = 1\nvalue = [0, 0, 0 ... 0, 0, 0]"] ;
820 -> 821 ;
822 [label="gini = 0.0\nsamples = 1\nvalue = [0, 0, 0 ... 0, 0, 0]"] ;
820 -> 822 ;
823 [label="X[3] <= 21.5\ngini = 0.75\nsamples = 4\nvalue = [0, 0, 0 ... 0, 0, 0]"] ;
819 -> 823 ;
824 [label="gini = 0.0\nsamples = 1\nvalue = [0, 0, 0 ... 0, 0, 0]"] ;
823 -> 824 ;
825 [label="X[3] <= 25.5\ngini = 0.667\nsamples = 3\nvalue = [0, 0, 0 ... 0, 0, 0]"] ;
823 -> 825 ;
826 [label="gini = 0.0\nsamples = 1\nvalue = [0, 0, 0 ... 0, 0, 0]"] ;
825 -> 826 ;
827 [label="X[4] <= 17.0\ngini = 0.5\nsamples = 2\nvalue = [0, 0, 0 ... 0, 0, 0]"] ;
825 -> 827 ;
828 [label="gini = 0.0\nsamples = 1\nvalue = [0, 0, 0 ... 0, 0, 0]"] ;
827 -> 828 ;
829 [label="gini = 0.0\nsamples = 1\nvalue = [0, 0, 0 ... 0, 0, 0]"] ;
827 -> 829 ;
830 [label="X[3] <= 5.0\ngini = 0.8\nsamples = 5\nvalue = [0, 0, 0 ... 0, 0, 0]"] ;
812 -> 830 ;
831 [label="gini = 0.0\nsamples = 1\nvalue = [0, 0, 0 ... 0, 0, 0]"] ;
830 -> 831 ;
832 [label="X[4] <= 16.5\ngini = 0.75\nsamples = 4\nvalue = [0, 0, 0 ... 0, 0, 0]"] ;
830 -> 832 ;
833 [label="X[2] <= 3.0\ngini = 0.5\nsamples = 2\nvalue = [0, 0, 0 ... 0, 0, 0]"] ;
832 -> 833 ;
834 [label="gini = 0.0\nsamples = 1\nvalue = [0, 0, 0 ... 0, 0, 0]"] ;
833 -> 834 ;
835 [label="gini = 0.0\nsamples = 1\nvalue = [0, 0, 0 ... 0, 0, 0]"] ;
833 -> 835 ;
836 [label="X[3] <= 16.0\ngini = 0.5\nsamples = 2\nvalue = [0, 0, 0 ... 0, 0, 0]"] ;
832 -> 836 ;
837 [label="gini = 0.0\nsamples = 1\nvalue = [0, 0, 0 ... 0, 0, 0]"] ;
836 -> 837 ;
838 [label="gini = 0.0\nsamples = 1\nvalue = [0, 0, 0 ... 0, 0, 0]"] ;
836 -> 838 ;
839 [label="X[3] <= 11.0\ngini = 0.844\nsamples = 8\nvalue = [0, 0, 0 ... 0, 0, 0]"] ;
799 -> 839 ;
840 [label="X[2] <= 7.0\ngini = 0.667\nsamples = 3\nvalue = [0, 0, 0 ... 0, 0, 0]"] ;
839 -> 840 ;
841 [label="X[5] <= 29.5\ngini = 0.5\nsamples = 2\nvalue = [0, 0, 0 ... 0, 0, 0]"] ;
840 -> 841 ;
842 [label="gini = 0.0\nsamples = 1\nvalue = [0, 0, 0 ... 0, 0, 0]"] ;
841 -> 842 ;
843 [label="gini = 0.0\nsamples = 1\nvalue = [0, 0, 0 ... 0, 0, 0]"] ;
841 -> 843 ;
844 [label="gini = 0.0\nsamples = 1\nvalue = [0, 0, 0 ... 0, 0, 0]"] ;
840 -> 844 ;
845 [label="X[3] <= 16.0\ngini = 0.72\nsamples = 5\nvalue = [0, 0, 0 ... 0, 0, 0]"] ;
839 -> 845 ;
846 [label="gini = 0.0\nsamples = 2\nvalue = [0, 0, 0 ... 0, 0, 0]"] ;
845 -> 846 ;
847 [label="X[3] <= 23.0\ngini = 0.667\nsamples = 3\nvalue = [0, 0, 0 ... 0, 0, 0]"] ;
845 -> 847 ;
848 [label="gini = 0.0\nsamples = 1\nvalue = [0, 0, 0 ... 0, 0, 0]"] ;
847 -> 848 ;
849 [label="X[0] <= 0.5\ngini = 0.5\nsamples = 2\nvalue = [0, 0, 0 ... 0, 0, 0]"] ;
847 -> 849 ;
850 [label="gini = 0.0\nsamples = 1\nvalue = [0, 0, 0 ... 0, 0, 0]"] ;
849 -> 850 ;
851 [label="gini = 0.0\nsamples = 1\nvalue = [0, 0, 0 ... 0, 0, 0]"] ;
849 -> 851 ;
852 [label="X[2] <= 8.0\ngini = 0.939\nsamples = 29\nvalue = [0, 0, 0 ... 0, 0, 0]"] ;
798 -> 852 ;
853 [label="X[0] <= 3.5\ngini = 0.945\nsamples = 20\nvalue = [0, 0, 0 ... 0, 0, 0]"] ;
852 -> 853 ;
854 [label="X[3] <= 2.5\ngini = 0.923\nsamples = 13\nvalue = [0, 0, 0 ... 0, 0, 0]"] ;
853 -> 854 ;
855 [label="X[2] <= 2.5\ngini = 0.5\nsamples = 2\nvalue = [0, 0, 0 ... 0, 0, 0]"] ;
854 -> 855 ;
856 [label="gini = 0.0\nsamples = 1\nvalue = [0, 0, 0 ... 0, 0, 0]"] ;
855 -> 856 ;
857 [label="gini = 0.0\nsamples = 1\nvalue = [0, 0, 0 ... 0, 0, 0]"] ;
855 -> 857 ;
858 [label="X[5] <= 22.0\ngini = 0.909\nsamples = 11\nvalue = [0, 0, 0 ... 0, 0, 0]"] ;
854 -> 858 ;
859 [label="gini = 0.0\nsamples = 1\nvalue = [0, 0, 0 ... 0, 0, 0]"] ;
858 -> 859 ;
860 [label="X[0] <= 2.5\ngini = 0.9\nsamples = 10\nvalue = [0, 0, 0 ... 0, 0, 0]"] ;
858 -> 860 ;
861 [label="X[4] <= 16.5\ngini = 0.857\nsamples = 7\nvalue = [0, 0, 0 ... 0, 0, 0]"] ;
860 -> 861 ;
862 [label="X[2] <= 2.0\ngini = 0.5\nsamples = 2\nvalue = [0, 0, 0 ... 0, 0, 0]"] ;
861 -> 862 ;
863 [label="gini = 0.0\nsamples = 1\nvalue = [0, 0, 0 ... 0, 0, 0]"] ;
862 -> 863 ;
864 [label="gini = 0.0\nsamples = 1\nvalue = [0, 0, 0 ... 0, 0, 0]"] ;
862 -> 864 ;
865 [label="X[4] <= 17.5\ngini = 0.8\nsamples = 5\nvalue = [0, 0, 0 ... 0, 0, 0]"] ;
861 -> 865 ;
866 [label="X[5] <= 27.5\ngini = 0.5\nsamples = 2\nvalue = [0, 0, 0 ... 0, 0, 0]"] ;
865 -> 866 ;
867 [label="gini = 0.0\nsamples = 1\nvalue = [0, 0, 0 ... 0, 0, 0]"] ;
866 -> 867 ;
868 [label="gini = 0.0\nsamples = 1\nvalue = [0, 0, 0 ... 0, 0, 0]"] ;
866 -> 868 ;
869 [label="X[2] <= 2.5\ngini = 0.667\nsamples = 3\nvalue = [0, 0, 0 ... 0, 0, 0]"] ;
865 -> 869 ;
870 [label="gini = 0.0\nsamples = 1\nvalue = [0, 0, 0 ... 0, 0, 0]"] ;
869 -> 870 ;
871 [label="X[5] <= 29.5\ngini = 0.5\nsamples = 2\nvalue = [0, 0, 0 ... 0, 0, 0]"] ;
869 -> 871 ;
872 [label="gini = 0.0\nsamples = 1\nvalue = [0, 0, 0 ... 0, 0, 0]"] ;
871 -> 872 ;
873 [label="gini = 0.0\nsamples = 1\nvalue = [0, 0, 0 ... 0, 0, 0]"] ;
871 -> 873 ;
874 [label="X[4] <= 15.5\ngini = 0.667\nsamples = 3\nvalue = [0, 0, 0 ... 0, 0, 0]"] ;
860 -> 874 ;
875 [label="gini = 0.0\nsamples = 1\nvalue = [0, 0, 0 ... 0, 0, 0]"] ;
874 -> 875 ;
876 [label="X[4] <= 17.5\ngini = 0.5\nsamples = 2\nvalue = [0, 0, 0 ... 0, 0, 0]"] ;
874 -> 876 ;
877 [label="gini = 0.0\nsamples = 1\nvalue = [0, 0, 0 ... 0, 0, 0]"] ;
876 -> 877 ;
878 [label="gini = 0.0\nsamples = 1\nvalue = [0, 0, 0 ... 0, 0, 0]"] ;
876 -> 878 ;
879 [label="X[4] <= 17.0\ngini = 0.816\nsamples = 7\nvalue = [0, 0, 0 ... 0, 0, 0]"] ;
853 -> 879 ;
880 [label="X[2] <= 1.5\ngini = 0.75\nsamples = 4\nvalue = [0, 0, 0 ... 0, 0, 0]"] ;
879 -> 880 ;
881 [label="gini = 0.0\nsamples = 1\nvalue = [0, 0, 0 ... 0, 0, 0]"] ;
880 -> 881 ;
882 [label="X[3] <= 9.5\ngini = 0.667\nsamples = 3\nvalue = [0, 0, 0 ... 0, 0, 0]"] ;
880 -> 882 ;
883 [label="gini = 0.0\nsamples = 1\nvalue = [0, 0, 0 ... 0, 0, 0]"] ;
882 -> 883 ;
884 [label="X[2] <= 2.5\ngini = 0.5\nsamples = 2\nvalue = [0, 0, 0 ... 0, 0, 0]"] ;
882 -> 884 ;
885 [label="gini = 0.0\nsamples = 1\nvalue = [0, 0, 0 ... 0, 0, 0]"] ;
884 -> 885 ;
886 [label="gini = 0.0\nsamples = 1\nvalue = [0, 0, 0 ... 0, 0, 0]"] ;
884 -> 886 ;
887 [label="X[3] <= 6.5\ngini = 0.444\nsamples = 3\nvalue = [0, 0, 0 ... 0, 0, 0]"] ;
879 -> 887 ;
888 [label="gini = 0.0\nsamples = 1\nvalue = [0, 0, 0 ... 0, 0, 0]"] ;
887 -> 888 ;
889 [label="gini = 0.0\nsamples = 2\nvalue = [0, 0, 0 ... 0, 0, 0]"] ;
887 -> 889 ;
890 [label="X[4] <= 18.5\ngini = 0.741\nsamples = 9\nvalue = [0, 0, 0 ... 0, 0, 0]"] ;
852 -> 890 ;
891 [label="X[3] <= 15.0\ngini = 0.833\nsamples = 6\nvalue = [0, 0, 0 ... 0, 0, 0]"] ;
890 -> 891 ;
892 [label="gini = 0.0\nsamples = 1\nvalue = [0, 0, 0 ... 0, 0, 0]"] ;
891 -> 892 ;
893 [label="X[5] <= 25.5\ngini = 0.8\nsamples = 5\nvalue = [0, 0, 0 ... 0, 0, 0]"] ;
891 -> 893 ;
894 [label="gini = 0.0\nsamples = 1\nvalue = [0, 0, 0 ... 0, 0, 0]"] ;
893 -> 894 ;
895 [label="X[4] <= 16.0\ngini = 0.75\nsamples = 4\nvalue = [0, 0, 0 ... 0, 0, 0]"] ;
893 -> 895 ;
896 [label="gini = 0.0\nsamples = 1\nvalue = [0, 0, 0 ... 0, 0, 0]"] ;
895 -> 896 ;
897 [label="X[2] <= 11.5\ngini = 0.667\nsamples = 3\nvalue = [0, 0, 0 ... 0, 0, 0]"] ;
895 -> 897 ;
898 [label="gini = 0.0\nsamples = 1\nvalue = [0, 0, 0 ... 0, 0, 0]"] ;
897 -> 898 ;
899 [label="X[4] <= 17.5\ngini = 0.5\nsamples = 2\nvalue = [0, 0, 0 ... 0, 0, 0]"] ;
897 -> 899 ;
900 [label="gini = 0.0\nsamples = 1\nvalue = [0, 0, 0 ... 0, 0, 0]"] ;
899 -> 900 ;
901 [label="gini = 0.0\nsamples = 1\nvalue = [0, 0, 0 ... 0, 0, 0]"] ;
899 -> 901 ;
902 [label="gini = 0.0\nsamples = 3\nvalue = [0, 0, 0 ... 0, 0, 0]"] ;
890 -> 902 ;
903 [label="X[3] <= 14.5\ngini = 0.989\nsamples = 161\nvalue = [0, 0, 0 ... 0, 0, 0]"] ;
169 -> 903 ;
904 [label="X[3] <= 12.5\ngini = 0.978\nsamples = 86\nvalue = [0, 0, 0 ... 0, 0, 0]"] ;
903 -> 904 ;
905 [label="X[0] <= 2.5\ngini = 0.98\nsamples = 66\nvalue = [0, 0, 0 ... 0, 0, 0]"] ;
904 -> 905 ;
906 [label="X[3] <= 10.5\ngini = 0.966\nsamples = 36\nvalue = [0, 0, 0 ... 0, 0, 0]"] ;
905 -> 906 ;
907 [label="X[3] <= 7.5\ngini = 0.958\nsamples = 29\nvalue = [0, 0, 0 ... 0, 0, 0]"] ;
906 -> 907 ;
908 [label="X[5] <= 5.0\ngini = 0.927\nsamples = 17\nvalue = [0, 0, 0 ... 0, 0, 0]"] ;
907 -> 908 ;
909 [label="X[0] <= 0.5\ngini = 0.84\nsamples = 9\nvalue = [0, 0, 0 ... 0, 0, 0]"] ;
908 -> 909 ;
910 [label="X[2] <= 11.5\ngini = 0.778\nsamples = 6\nvalue = [0, 0, 0 ... 0, 0, 0]"] ;
909 -> 910 ;
911 [label="X[4] <= 22.5\ngini = 0.72\nsamples = 5\nvalue = [0, 0, 0 ... 0, 0, 0]"] ;
910 -> 911 ;
912 [label="X[4] <= 21.0\ngini = 0.625\nsamples = 4\nvalue = [0, 0, 0 ... 0, 0, 0]"] ;
911 -> 912 ;
913 [label="X[2] <= 6.0\ngini = 0.667\nsamples = 3\nvalue = [0, 0, 0 ... 0, 0, 0]"] ;
912 -> 913 ;
914 [label="gini = 0.5\nsamples = 2\nvalue = [0, 0, 0 ... 0, 0, 0]"] ;
913 -> 914 ;
915 [label="gini = 0.0\nsamples = 1\nvalue = [0, 0, 0 ... 0, 0, 0]"] ;
913 -> 915 ;
916 [label="gini = 0.0\nsamples = 1\nvalue = [0, 0, 0 ... 0, 0, 0]"] ;
912 -> 916 ;
917 [label="gini = 0.0\nsamples = 1\nvalue = [0, 0, 0 ... 0, 0, 0]"] ;
911 -> 917 ;
918 [label="gini = 0.0\nsamples = 1\nvalue = [0, 0, 0 ... 0, 0, 0]"] ;
910 -> 918 ;
919 [label="X[3] <= 4.5\ngini = 0.667\nsamples = 3\nvalue = [0, 0, 0 ... 0, 0, 0]"] ;
909 -> 919 ;
920 [label="gini = 0.0\nsamples = 1\nvalue = [0, 0, 0 ... 0, 0, 0]"] ;
919 -> 920 ;
921 [label="X[0] <= 1.5\ngini = 0.5\nsamples = 2\nvalue = [0, 0, 0 ... 0, 0, 0]"] ;
919 -> 921 ;
922 [label="gini = 0.0\nsamples = 1\nvalue = [0, 0, 0 ... 0, 0, 0]"] ;
921 -> 922 ;
923 [label="gini = 0.0\nsamples = 1\nvalue = [0, 0, 0 ... 0, 0, 0]"] ;
921 -> 923 ;
924 [label="X[0] <= 0.5\ngini = 0.875\nsamples = 8\nvalue = [0, 0, 0 ... 0, 0, 0]"] ;
908 -> 924 ;
925 [label="X[2] <= 11.5\ngini = 0.5\nsamples = 2\nvalue = [0, 0, 0 ... 0, 0, 0]"] ;
924 -> 925 ;
926 [label="gini = 0.0\nsamples = 1\nvalue = [0, 0, 0 ... 0, 0, 0]"] ;
925 -> 926 ;
927 [label="gini = 0.0\nsamples = 1\nvalue = [0, 0, 0 ... 0, 0, 0]"] ;
925 -> 927 ;
928 [label="X[0] <= 1.5\ngini = 0.833\nsamples = 6\nvalue = [0, 0, 0 ... 0, 0, 0]"] ;
924 -> 928 ;
929 [label="X[2] <= 4.5\ngini = 0.667\nsamples = 3\nvalue = [0, 0, 0 ... 0, 0, 0]"] ;
928 -> 929 ;
930 [label="gini = 0.0\nsamples = 1\nvalue = [0, 0, 0 ... 0, 0, 0]"] ;
929 -> 930 ;
931 [label="X[3] <= 3.5\ngini = 0.5\nsamples = 2\nvalue = [0, 0, 0 ... 0, 0, 0]"] ;
929 -> 931 ;
932 [label="gini = 0.0\nsamples = 1\nvalue = [0, 0, 0 ... 0, 0, 0]"] ;
931 -> 932 ;
933 [label="gini = 0.0\nsamples = 1\nvalue = [0, 0, 0 ... 0, 0, 0]"] ;
931 -> 933 ;
934 [label="X[2] <= 6.5\ngini = 0.667\nsamples = 3\nvalue = [0, 0, 0 ... 0, 0, 0]"] ;
928 -> 934 ;
935 [label="X[5] <= 16.0\ngini = 0.5\nsamples = 2\nvalue = [0, 0, 0 ... 0, 0, 0]"] ;
934 -> 935 ;
936 [label="gini = 0.0\nsamples = 1\nvalue = [0, 0, 0 ... 0, 0, 0]"] ;
935 -> 936 ;
937 [label="gini = 0.0\nsamples = 1\nvalue = [0, 0, 0 ... 0, 0, 0]"] ;
935 -> 937 ;
938 [label="gini = 0.0\nsamples = 1\nvalue = [0, 0, 0 ... 0, 0, 0]"] ;
934 -> 938 ;
939 [label="X[0] <= 0.5\ngini = 0.903\nsamples = 12\nvalue = [0, 0, 0 ... 0, 0, 0]"] ;
907 -> 939 ;
940 [label="X[4] <= 20.5\ngini = 0.778\nsamples = 6\nvalue = [0, 0, 0 ... 0, 0, 0]"] ;
939 -> 940 ;
941 [label="X[5] <= 15.0\ngini = 0.444\nsamples = 3\nvalue = [0, 0, 0 ... 0, 0, 0]"] ;
940 -> 941 ;
942 [label="X[2] <= 4.5\ngini = 0.5\nsamples = 2\nvalue = [0, 0, 0 ... 0, 0, 0]"] ;
941 -> 942 ;
943 [label="gini = 0.0\nsamples = 1\nvalue = [0, 0, 0 ... 0, 0, 0]"] ;
942 -> 943 ;
944 [label="gini = 0.0\nsamples = 1\nvalue = [0, 0, 0 ... 0, 0, 0]"] ;
942 -> 944 ;
945 [label="gini = 0.0\nsamples = 1\nvalue = [0, 0, 0 ... 0, 0, 0]"] ;
941 -> 945 ;
946 [label="X[3] <= 9.0\ngini = 0.667\nsamples = 3\nvalue = [0, 0, 0 ... 0, 0, 0]"] ;
940 -> 946 ;
947 [label="X[4] <= 21.5\ngini = 0.5\nsamples = 2\nvalue = [0, 0, 0 ... 0, 0, 0]"] ;
946 -> 947 ;
948 [label="gini = 0.0\nsamples = 1\nvalue = [0, 0, 0 ... 0, 0, 0]"] ;
947 -> 948 ;
949 [label="gini = 0.0\nsamples = 1\nvalue = [0, 0, 0 ... 0, 0, 0]"] ;
947 -> 949 ;
950 [label="gini = 0.0\nsamples = 1\nvalue = [0, 0, 0 ... 0, 0, 0]"] ;
946 -> 950 ;
951 [label="X[0] <= 1.5\ngini = 0.833\nsamples = 6\nvalue = [0, 0, 0 ... 0, 0, 0]"] ;
939 -> 951 ;
952 [label="X[5] <= 11.0\ngini = 0.8\nsamples = 5\nvalue = [0, 0, 0 ... 0, 0, 0]"] ;
951 -> 952 ;
953 [label="X[4] <= 21.0\ngini = 0.667\nsamples = 3\nvalue = [0, 0, 0 ... 0, 0, 0]"] ;
952 -> 953 ;
954 [label="gini = 0.5\nsamples = 2\nvalue = [0, 0, 0 ... 0, 0, 0]"] ;
953 -> 954 ;
955 [label="gini = 0.0\nsamples = 1\nvalue = [0, 0, 0 ... 0, 0, 0]"] ;
953 -> 955 ;
956 [label="X[4] <= 21.0\ngini = 0.5\nsamples = 2\nvalue = [0, 0, 0 ... 0, 0, 0]"] ;
952 -> 956 ;
957 [label="gini = 0.0\nsamples = 1\nvalue = [0, 0, 0 ... 0, 0, 0]"] ;
956 -> 957 ;
958 [label="gini = 0.0\nsamples = 1\nvalue = [0, 0, 0 ... 0, 0, 0]"] ;
956 -> 958 ;
959 [label="gini = 0.0\nsamples = 1\nvalue = [0, 0, 0 ... 0, 0, 0]"] ;
951 -> 959 ;
960 [label="X[2] <= 2.5\ngini = 0.816\nsamples = 7\nvalue = [0, 0, 0 ... 0, 0, 0]"] ;
906 -> 960 ;
961 [label="X[4] <= 20.5\ngini = 0.75\nsamples = 4\nvalue = [0, 0, 0 ... 0, 0, 0]"] ;
960 -> 961 ;
962 [label="gini = 0.0\nsamples = 1\nvalue = [0, 0, 0 ... 0, 0, 0]"] ;
961 -> 962 ;
963 [label="X[4] <= 21.5\ngini = 0.667\nsamples = 3\nvalue = [0, 0, 0 ... 0, 0, 0]"] ;
961 -> 963 ;
964 [label="gini = 0.0\nsamples = 1\nvalue = [0, 0, 0 ... 0, 0, 0]"] ;
963 -> 964 ;
965 [label="X[4] <= 22.5\ngini = 0.5\nsamples = 2\nvalue = [0, 0, 0 ... 0, 0, 0]"] ;
963 -> 965 ;
966 [label="gini = 0.0\nsamples = 1\nvalue = [0, 0, 0 ... 0, 0, 0]"] ;
965 -> 966 ;
967 [label="gini = 0.0\nsamples = 1\nvalue = [0, 0, 0 ... 0, 0, 0]"] ;
965 -> 967 ;
968 [label="X[4] <= 22.5\ngini = 0.444\nsamples = 3\nvalue = [0, 0, 0 ... 0, 0, 0]"] ;
960 -> 968 ;
969 [label="gini = 0.0\nsamples = 2\nvalue = [0, 0, 0 ... 0, 0, 0]"] ;
968 -> 969 ;
970 [label="gini = 0.0\nsamples = 1\nvalue = [0, 0, 0 ... 0, 0, 0]"] ;
968 -> 970 ;
971 [label="X[2] <= 11.5\ngini = 0.956\nsamples = 30\nvalue = [0, 0, 0 ... 0, 0, 0]"] ;
905 -> 971 ;
972 [label="X[4] <= 21.5\ngini = 0.951\nsamples = 24\nvalue = [0, 0, 0 ... 0, 0, 0]"] ;
971 -> 972 ;
973 [label="X[2] <= 3.5\ngini = 0.922\nsamples = 16\nvalue = [0, 0, 0 ... 0, 0, 0]"] ;
972 -> 973 ;
974 [label="X[2] <= 1.5\ngini = 0.889\nsamples = 12\nvalue = [0, 0, 0 ... 0, 0, 0]"] ;
973 -> 974 ;
975 [label="X[5] <= 10.0\ngini = 0.667\nsamples = 3\nvalue = [0, 0, 0 ... 0, 0, 0]"] ;
974 -> 975 ;
976 [label="gini = 0.5\nsamples = 2\nvalue = [0, 0, 0 ... 0, 0, 0]"] ;
975 -> 976 ;
977 [label="gini = 0.0\nsamples = 1\nvalue = [0, 0, 0 ... 0, 0, 0]"] ;
975 -> 977 ;
978 [label="X[4] <= 20.5\ngini = 0.84\nsamples = 9\nvalue = [0, 0, 0 ... 0, 0, 0]"] ;
974 -> 978 ;
979 [label="X[3] <= 6.5\ngini = 0.8\nsamples = 5\nvalue = [0, 0, 0 ... 0, 0, 0]"] ;
978 -> 979 ;
980 [label="X[5] <= 12.5\ngini = 0.667\nsamples = 3\nvalue = [0, 0, 0 ... 0, 0, 0]"] ;
979 -> 980 ;
981 [label="gini = 0.0\nsamples = 1\nvalue = [0, 0, 0 ... 0, 0, 0]"] ;
980 -> 981 ;
982 [label="X[5] <= 27.5\ngini = 0.5\nsamples = 2\nvalue = [0, 0, 0 ... 0, 0, 0]"] ;
980 -> 982 ;
983 [label="gini = 0.0\nsamples = 1\nvalue = [0, 0, 0 ... 0, 0, 0]"] ;
982 -> 983 ;
984 [label="gini = 0.0\nsamples = 1\nvalue = [0, 0, 0 ... 0, 0, 0]"] ;
982 -> 984 ;
985 [label="X[5] <= 15.0\ngini = 0.5\nsamples = 2\nvalue = [0, 0, 0 ... 0, 0, 0]"] ;
979 -> 985 ;
986 [label="gini = 0.0\nsamples = 1\nvalue = [0, 0, 0 ... 0, 0, 0]"] ;
985 -> 986 ;
987 [label="gini = 0.0\nsamples = 1\nvalue = [0, 0, 0 ... 0, 0, 0]"] ;
985 -> 987 ;
988 [label="X[2] <= 2.5\ngini = 0.625\nsamples = 4\nvalue = [0, 0, 0 ... 0, 0, 0]"] ;
978 -> 988 ;
989 [label="gini = 0.0\nsamples = 2\nvalue = [0, 0, 0 ... 0, 0, 0]"] ;
988 -> 989 ;
990 [label="X[0] <= 3.5\ngini = 0.5\nsamples = 2\nvalue = [0, 0, 0 ... 0, 0, 0]"] ;
988 -> 990 ;
991 [label="gini = 0.0\nsamples = 1\nvalue = [0, 0, 0 ... 0, 0, 0]"] ;
990 -> 991 ;
992 [label="gini = 0.0\nsamples = 1\nvalue = [0, 0, 0 ... 0, 0, 0]"] ;
990 -> 992 ;
993 [label="X[3] <= 8.0\ngini = 0.75\nsamples = 4\nvalue = [0, 0, 0 ... 0, 0, 0]"] ;
973 -> 993 ;
994 [label="X[5] <= 15.0\ngini = 0.5\nsamples = 2\nvalue = [0, 0, 0 ... 0, 0, 0]"] ;
993 -> 994 ;
995 [label="gini = 0.0\nsamples = 1\nvalue = [0, 0, 0 ... 0, 0, 0]"] ;
994 -> 995 ;
996 [label="gini = 0.0\nsamples = 1\nvalue = [0, 0, 0 ... 0, 0, 0]"] ;
994 -> 996 ;
997 [label="X[3] <= 11.0\ngini = 0.5\nsamples = 2\nvalue = [0, 0, 0 ... 0, 0, 0]"] ;
993 -> 997 ;
998 [label="gini = 0.0\nsamples = 1\nvalue = [0, 0, 0 ... 0, 0, 0]"] ;
997 -> 998 ;
999 [label="gini = 0.0\nsamples = 1\nvalue = [0, 0, 0 ... 0, 0, 0]"] ;
997 -> 999 ;
1000 [label="X[3] <= 2.5\ngini = 0.875\nsamples = 8\nvalue = [0, 0, 0 ... 0, 0, 0]"] ;
972 -> 1000 ;
1001 [label="X[2] <= 2.5\ngini = 0.667\nsamples = 3\nvalue = [0, 0, 0 ... 0, 0, 0]"] ;
1000 -> 1001 ;
1002 [label="gini = 0.0\nsamples = 1\nvalue = [0, 0, 0 ... 0, 0, 0]"] ;
1001 -> 1002 ;
1003 [label="X[4] <= 22.5\ngini = 0.5\nsamples = 2\nvalue = [0, 0, 0 ... 0, 0, 0]"] ;
1001 -> 1003 ;
1004 [label="gini = 0.0\nsamples = 1\nvalue = [0, 0, 0 ... 0, 0, 0]"] ;
1003 -> 1004 ;
1005 [label="gini = 0.0\nsamples = 1\nvalue = [0, 0, 0 ... 0, 0, 0]"] ;
1003 -> 1005 ;
1006 [label="X[3] <= 5.0\ngini = 0.8\nsamples = 5\nvalue = [0, 0, 0 ... 0, 0, 0]"] ;
1000 -> 1006 ;
1007 [label="gini = 0.0\nsamples = 1\nvalue = [0, 0, 0 ... 0, 0, 0]"] ;
1006 -> 1007 ;
1008 [label="X[2] <= 2.5\ngini = 0.75\nsamples = 4\nvalue = [0, 0, 0 ... 0, 0, 0]"] ;
1006 -> 1008 ;
1009 [label="gini = 0.0\nsamples = 1\nvalue = [0, 0, 0 ... 0, 0, 0]"] ;
1008 -> 1009 ;
1010 [label="X[2] <= 4.0\ngini = 0.667\nsamples = 3\nvalue = [0, 0, 0 ... 0, 0, 0]"] ;
1008 -> 1010 ;
1011 [label="gini = 0.0\nsamples = 1\nvalue = [0, 0, 0 ... 0, 0, 0]"] ;
1010 -> 1011 ;
1012 [label="X[3] <= 6.5\ngini = 0.5\nsamples = 2\nvalue = [0, 0, 0 ... 0, 0, 0]"] ;
1010 -> 1012 ;
1013 [label="gini = 0.0\nsamples = 1\nvalue = [0, 0, 0 ... 0, 0, 0]"] ;
1012 -> 1013 ;
1014 [label="gini = 0.0\nsamples = 1\nvalue = [0, 0, 0 ... 0, 0, 0]"] ;
1012 -> 1014 ;
1015 [label="X[5] <= 9.5\ngini = 0.778\nsamples = 6\nvalue = [0, 0, 0 ... 0, 0, 0]"] ;
971 -> 1015 ;
1016 [label="X[3] <= 5.5\ngini = 0.667\nsamples = 3\nvalue = [0, 0, 0 ... 0, 0, 0]"] ;
1015 -> 1016 ;
1017 [label="gini = 0.5\nsamples = 2\nvalue = [0, 0, 0 ... 0, 0, 0]"] ;
1016 -> 1017 ;
1018 [label="gini = 0.0\nsamples = 1\nvalue = [0, 0, 0 ... 0, 0, 0]"] ;
1016 -> 1018 ;
1019 [label="X[5] <= 22.0\ngini = 0.444\nsamples = 3\nvalue = [0, 0, 0 ... 0, 0, 0]"] ;
1015 -> 1019 ;
1020 [label="gini = 0.0\nsamples = 2\nvalue = [0, 0, 0 ... 0, 0, 0]"] ;
1019 -> 1020 ;
1021 [label="gini = 0.0\nsamples = 1\nvalue = [0, 0, 0 ... 0, 0, 0]"] ;
1019 -> 1021 ;
1022 [label="X[5] <= 5.0\ngini = 0.895\nsamples = 20\nvalue = [0, 0, 0 ... 0, 0, 0]"] ;
904 -> 1022 ;
1023 [label="X[4] <= 20.5\ngini = 0.816\nsamples = 14\nvalue = [0, 0, 0 ... 0, 0, 0]"] ;
1022 -> 1023 ;
1024 [label="X[2] <= 2.5\ngini = 0.5\nsamples = 2\nvalue = [0, 0, 0 ... 0, 0, 0]"] ;
1023 -> 1024 ;
1025 [label="gini = 0.0\nsamples = 1\nvalue = [0, 0, 0 ... 0, 0, 0]"] ;
1024 -> 1025 ;
1026 [label="gini = 0.0\nsamples = 1\nvalue = [0, 0, 0 ... 0, 0, 0]"] ;
1024 -> 1026 ;
1027 [label="X[4] <= 22.5\ngini = 0.764\nsamples = 12\nvalue = [0, 0, 0 ... 0, 0, 0]"] ;
1023 -> 1027 ;
1028 [label="X[4] <= 21.5\ngini = 0.727\nsamples = 11\nvalue = [0, 0, 0 ... 0, 0, 0]"] ;
1027 -> 1028 ;
1029 [label="X[2] <= 2.5\ngini = 0.48\nsamples = 5\nvalue = [0, 0, 0 ... 0, 0, 0]"] ;
1028 -> 1029 ;
1030 [label="gini = 0.0\nsamples = 3\nvalue = [0, 0, 0 ... 0, 0, 0]"] ;
1029 -> 1030 ;
1031 [label="gini = 0.0\nsamples = 2\nvalue = [0, 0, 0 ... 0, 0, 0]"] ;
1029 -> 1031 ;
1032 [label="X[3] <= 13.5\ngini = 0.778\nsamples = 6\nvalue = [0, 0, 0 ... 0, 0, 0]"] ;
1028 -> 1032 ;
1033 [label="X[2] <= 2.5\ngini = 0.75\nsamples = 4\nvalue = [0, 0, 0 ... 0, 0, 0]"] ;
1032 -> 1033 ;
1034 [label="gini = 0.5\nsamples = 2\nvalue = [0, 0, 0 ... 0, 0, 0]"] ;
1033 -> 1034 ;
1035 [label="gini = 0.5\nsamples = 2\nvalue = [0, 0, 0 ... 0, 0, 0]"] ;
1033 -> 1035 ;
1036 [label="gini = 0.0\nsamples = 2\nvalue = [0, 0, 0 ... 0, 0, 0]"] ;
1032 -> 1036 ;
1037 [label="gini = 0.0\nsamples = 1\nvalue = [0, 0, 0 ... 0, 0, 0]"] ;
1027 -> 1037 ;
1038 [label="X[2] <= 2.5\ngini = 0.833\nsamples = 6\nvalue = [0, 0, 0 ... 0, 0, 0]"] ;
1022 -> 1038 ;
1039 [label="X[5] <= 20.0\ngini = 0.5\nsamples = 2\nvalue = [0, 0, 0 ... 0, 0, 0]"] ;
1038 -> 1039 ;
1040 [label="gini = 0.0\nsamples = 1\nvalue = [0, 0, 0 ... 0, 0, 0]"] ;
1039 -> 1040 ;
1041 [label="gini = 0.0\nsamples = 1\nvalue = [0, 0, 0 ... 0, 0, 0]"] ;
1039 -> 1041 ;
1042 [label="X[0] <= 1.0\ngini = 0.75\nsamples = 4\nvalue = [0, 0, 0 ... 0, 0, 0]"] ;
1038 -> 1042 ;
1043 [label="X[5] <= 17.5\ngini = 0.667\nsamples = 3\nvalue = [0, 0, 0 ... 0, 0, 0]"] ;
1042 -> 1043 ;
1044 [label="X[4] <= 21.5\ngini = 0.5\nsamples = 2\nvalue = [0, 0, 0 ... 0, 0, 0]"] ;
1043 -> 1044 ;
1045 [label="gini = 0.0\nsamples = 1\nvalue = [0, 0, 0 ... 0, 0, 0]"] ;
1044 -> 1045 ;
1046 [label="gini = 0.0\nsamples = 1\nvalue = [0, 0, 0 ... 0, 0, 0]"] ;
1044 -> 1046 ;
1047 [label="gini = 0.0\nsamples = 1\nvalue = [0, 0, 0 ... 0, 0, 0]"] ;
1043 -> 1047 ;
1048 [label="gini = 0.0\nsamples = 1\nvalue = [0, 0, 0 ... 0, 0, 0]"] ;
1042 -> 1048 ;
1049 [label="X[3] <= 16.5\ngini = 0.984\nsamples = 75\nvalue = [0, 0, 0 ... 0, 0, 0]"] ;
903 -> 1049 ;
1050 [label="X[3] <= 15.5\ngini = 0.888\nsamples = 13\nvalue = [0, 0, 0 ... 0, 0, 0]"] ;
1049 -> 1050 ;
1051 [label="X[4] <= 21.5\ngini = 0.86\nsamples = 10\nvalue = [0, 0, 0 ... 0, 0, 0]"] ;
1050 -> 1051 ;
1052 [label="X[5] <= 2.0\ngini = 0.778\nsamples = 6\nvalue = [0, 0, 0 ... 0, 0, 0]"] ;
1051 -> 1052 ;
1053 [label="gini = 0.0\nsamples = 2\nvalue = [0, 0, 0 ... 0, 0, 0]"] ;
1052 -> 1053 ;
1054 [label="X[2] <= 2.0\ngini = 0.75\nsamples = 4\nvalue = [0, 0, 0 ... 0, 0, 0]"] ;
1052 -> 1054 ;
1055 [label="gini = 0.0\nsamples = 1\nvalue = [0, 0, 0 ... 0, 0, 0]"] ;
1054 -> 1055 ;
1056 [label="X[4] <= 20.5\ngini = 0.667\nsamples = 3\nvalue = [0, 0, 0 ... 0, 0, 0]"] ;
1054 -> 1056 ;
1057 [label="X[5] <= 27.5\ngini = 0.5\nsamples = 2\nvalue = [0, 0, 0 ... 0, 0, 0]"] ;
1056 -> 1057 ;
1058 [label="gini = 0.0\nsamples = 1\nvalue = [0, 0, 0 ... 0, 0, 0]"] ;
1057 -> 1058 ;
1059 [label="gini = 0.0\nsamples = 1\nvalue = [0, 0, 0 ... 0, 0, 0]"] ;
1057 -> 1059 ;
1060 [label="gini = 0.0\nsamples = 1\nvalue = [0, 0, 0 ... 0, 0, 0]"] ;
1056 -> 1060 ;
1061 [label="X[5] <= 10.0\ngini = 0.625\nsamples = 4\nvalue = [0, 0, 0 ... 0, 0, 0]"] ;
1051 -> 1061 ;
1062 [label="X[0] <= 2.5\ngini = 0.5\nsamples = 2\nvalue = [0, 0, 0 ... 0, 0, 0]"] ;
1061 -> 1062 ;
1063 [label="gini = 0.0\nsamples = 1\nvalue = [0, 0, 0 ... 0, 0, 0]"] ;
1062 -> 1063 ;
1064 [label="gini = 0.0\nsamples = 1\nvalue = [0, 0, 0 ... 0, 0, 0]"] ;
1062 -> 1064 ;
1065 [label="gini = 0.0\nsamples = 2\nvalue = [0, 0, 0 ... 0, 0, 0]"] ;
1061 -> 1065 ;
1066 [label="X[4] <= 21.0\ngini = 0.444\nsamples = 3\nvalue = [0, 0, 0 ... 0, 0, 0]"] ;
1050 -> 1066 ;
1067 [label="gini = 0.5\nsamples = 2\nvalue = [0, 0, 0 ... 0, 0, 0]"] ;
1066 -> 1067 ;
1068 [label="gini = 0.0\nsamples = 1\nvalue = [0, 0, 0 ... 0, 0, 0]"] ;
1066 -> 1068 ;
1069 [label="X[0] <= 0.5\ngini = 0.983\nsamples = 62\nvalue = [0, 0, 0 ... 0, 0, 0]"] ;
1049 -> 1069 ;
1070 [label="X[2] <= 2.5\ngini = 0.93\nsamples = 16\nvalue = [0, 0, 0 ... 0, 0, 0]"] ;
1069 -> 1070 ;
1071 [label="X[4] <= 20.5\ngini = 0.875\nsamples = 8\nvalue = [0, 0, 0 ... 0, 0, 0]"] ;
1070 -> 1071 ;
1072 [label="X[3] <= 28.5\ngini = 0.667\nsamples = 3\nvalue = [0, 0, 0 ... 0, 0, 0]"] ;
1071 -> 1072 ;
1073 [label="gini = 0.0\nsamples = 1\nvalue = [0, 0, 0 ... 0, 0, 0]"] ;
1072 -> 1073 ;
1074 [label="X[5] <= 26.5\ngini = 0.5\nsamples = 2\nvalue = [0, 0, 0 ... 0, 0, 0]"] ;
1072 -> 1074 ;
1075 [label="gini = 0.0\nsamples = 1\nvalue = [0, 0, 0 ... 0, 0, 0]"] ;
1074 -> 1075 ;
1076 [label="gini = 0.0\nsamples = 1\nvalue = [0, 0, 0 ... 0, 0, 0]"] ;
1074 -> 1076 ;
1077 [label="X[5] <= 7.5\ngini = 0.8\nsamples = 5\nvalue = [0, 0, 0 ... 0, 0, 0]"] ;
1071 -> 1077 ;
1078 [label="X[4] <= 22.0\ngini = 0.5\nsamples = 2\nvalue = [0, 0, 0 ... 0, 0, 0]"] ;
1077 -> 1078 ;
1079 [label="gini = 0.0\nsamples = 1\nvalue = [0, 0, 0 ... 0, 0, 0]"] ;
1078 -> 1079 ;
1080 [label="gini = 0.0\nsamples = 1\nvalue = [0, 0, 0 ... 0, 0, 0]"] ;
1078 -> 1080 ;
1081 [label="X[5] <= 16.0\ngini = 0.667\nsamples = 3\nvalue = [0, 0, 0 ... 0, 0, 0]"] ;
1077 -> 1081 ;
1082 [label="gini = 0.0\nsamples = 1\nvalue = [0, 0, 0 ... 0, 0, 0]"] ;
1081 -> 1082 ;
1083 [label="X[2] <= 1.5\ngini = 0.5\nsamples = 2\nvalue = [0, 0, 0 ... 0, 0, 0]"] ;
1081 -> 1083 ;
1084 [label="gini = 0.0\nsamples = 1\nvalue = [0, 0, 0 ... 0, 0, 0]"] ;
1083 -> 1084 ;
1085 [label="gini = 0.0\nsamples = 1\nvalue = [0, 0, 0 ... 0, 0, 0]"] ;
1083 -> 1085 ;
1086 [label="X[3] <= 25.5\ngini = 0.844\nsamples = 8\nvalue = [0, 0, 0 ... 0, 0, 0]"] ;
1070 -> 1086 ;
1087 [label="X[5] <= 7.5\ngini = 0.8\nsamples = 5\nvalue = [0, 0, 0 ... 0, 0, 0]"] ;
1086 -> 1087 ;
1088 [label="X[2] <= 11.5\ngini = 0.75\nsamples = 4\nvalue = [0, 0, 0 ... 0, 0, 0]"] ;
1087 -> 1088 ;
1089 [label="X[4] <= 21.0\ngini = 0.5\nsamples = 2\nvalue = [0, 0, 0 ... 0, 0, 0]"] ;
1088 -> 1089 ;
1090 [label="gini = 0.0\nsamples = 1\nvalue = [0, 0, 0 ... 0, 0, 0]"] ;
1089 -> 1090 ;
